svm_type nu_svr
kernel_type rbf
gamma 0.0625
nr_class 2
total_sv 18734
rho -7.105621159377101
SV
-0.13944804747756726 2:30.0 4:4.166666668 6:8.666666667 7:3.0 9:0.833333333 10:15.0 11:11.0 12:5.0 13:10.0 14:3.92352940946 15:1.0 16:1.0 
1.0 1:6.0 2:30.0 4:3.333333333 6:7.0 7:3.0 8:6.97499998256 9:10.0 10:15.0 11:7.0 12:5.833333333 13:8.333333333 14:6.78518518267 15:1.0 16:1.0 
1.0 1:4.6 2:30.0 4:2.5 6:7.0 7:5.0 8:5.7999999855 9:10.0 11:8.0 12:2.5 13:10.0 14:5.55517241188 15:1.0 
1.0 1:5.4 2:30.0 4:1.666666668 6:8.333333333 7:1.0 8:7.22499998194 10:30.0 11:2.0 12:0.833333333 13:10.0 14:7.22499998194 15:1.0 16:1.0 
-1.0 1:8.3 2:30.0 6:3.0 7:4.0 8:8.26666665289 9:10.0 10:15.0 11:6.0 14:8.15652173558 15:1.0 
-1.0 1:6.8 2:45.0 4:5.0 6:5.0 7:6.0 8:4.84999998787 9:7.5 11:8.0 12:2.5 13:7.5 14:6.21785714064 15:1.0 16:1.0 
-1.0 2:21.0 4:9.166666668 5:1.0 6:6.333333333 8:6.02499998494 10:5.0 11:2.0 14:6.02499998494 
-1.0 1:8.6 2:15.0 4:5.0 6:5.0 7:6.0 9:10.0 10:30.0 11:6.0 12:5.0 13:5.0 14:7.29999999571 15:1.0 
-1.0 1:8.2 2:30.0 3:1.0 4:1.666666668 5:1.0 6:6.6 7:4.0 8:7.71999998456 9:10.0 10:15.0 11:2.0 12:4.166666668 13:3.333333333 14:7.71999998456 15:1.0 16:1.0 
1.0 2:45.0 3:3.0 4:4.166666668 6:7.0 7:3.0 8:6.78999998303 9:5.833333333 11:4.0 12:2.5 13:5.0 14:6.97583332752 15:1.0 16:1.0 
-1.0 1:6.2 2:30.0 4:2.5 6:8.0 7:5.0 8:5.33333331556 9:2.5 11:4.0 12:2.5 13:10.0 14:6.58999999341 15:1.0 16:1.0 
1.0 2:30.0 4:1.666666668 6:6.333333333 7:3.0 8:5.799999942 9:8.333333333 10:15.0 11:5.0 13:0.833333333 14:5.82222221575 15:1.0 16:1.0 
-0.21142911284533392 1:5.3 2:21.0 3:2.0 6:5.0 7:4.0 8:6.91999998616 9:4.0 10:24.0 11:6.0 14:6.45652173632 15:1.0 
1.0 1:5.2 2:30.0 6:3.0 7:4.0 8:6.6999999866 9:10.0 10:15.0 11:6.0 14:7.193749997 15:1.0 
1.0 2:32.0 4:1.666666668 5:1.0 6:8.0 7:1.0 8:7.89999998025 10:10.0 11:3.0 12:0.833333333 13:7.5 14:7.97499999003 16:1.0 
1.0 2:30.0 4:1.666666668 6:6.333333333 7:3.0 8:3.93333332022 9:8.333333333 10:15.0 11:7.0 13:0.833333333 14:5.1999999948 15:1.0 16:1.0 
-1.0 1:6.9 2:45.0 4:5.0 6:6.0 7:6.0 8:6.87999998624 9:10.0 11:6.0 12:7.5 13:5.0 14:7.01249999708 15:1.0 
-1.0 2:45.0 4:8.333333333 6:6.666666667 7:3.0 8:6.799999983 9:10.0 11:4.0 12:3.333333333 13:4.166666668 14:6.7318181757 15:1.0 
1.0 2:30.0 4:1.666666668 6:6.333333333 7:3.0 8:7.27499998181 9:10.0 10:15.0 11:4.0 12:5.0 13:4.166666668 14:6.97499999419 15:1.0 16:1.0 
-1.0 1:6.2 2:30.0 4:2.5 5:1.0 6:7.0 7:5.0 8:7.61111110265 9:10.0 11:5.0 12:2.5 13:10.0 14:7.64090908744 15:1.0 
1.0 2:16.0 4:7.5 6:5.0 10:40.0 11:1.0 12:10.0 16:1.0 
-1.0 1:4.9 2:45.0 4:10.0 6:7.0 7:6.0 8:5.81999998836 9:7.5 11:6.0 12:7.5 13:2.5 14:6.15863636084 15:1.0 
-1.0 1:6.5 2:30.0 4:2.5 5:1.0 6:8.0 7:5.0 8:6.42499998394 9:2.5 11:5.0 12:2.5 13:10.0 14:6.62499999586 15:1.0 16:1.0 
1.0 1:4.4 2:30.0 3:1.0 6:7.0 7:4.0 9:10.0 10:15.0 11:6.0 14:7.29411764277 15:1.0 
-1.0 2:32.0 4:5.0 6:6.966666667 7:1.0 8:7.04999996475 10:10.0 11:2.0 12:0.833333333 13:7.5 14:7.04999996475 16:1.0 
1.0 1:7.75 2:45.0 4:2.5 6:9.0 7:5.0 8:8.05714284563 9:5.0 10:15.0 11:5.0 12:2.5 13:10.0 14:7.42249999629 15:1.0 16:1.0 
1.0 2:20.0 4:10.0 5:1.0 6:6.0 10:8.0 11:6.0 14:8.02941175998 
1.0 2:30.0 4:6.666666668 6:6.333333333 7:3.0 8:6.71666665547 9:5.0 10:15.0 11:5.0 12:5.0 13:5.833333333 14:7.12105262783 15:1.0 16:1.0 
-1.0 2:30.0 4:5.0 6:7.666666667 7:1.0 8:9.26666663578 10:30.0 11:2.0 12:0.833333333 13:10.0 14:9.26666663578 16:1.0 
-1.0 1:8.3 2:39.0 4:7.5 6:5.0 7:6.0 8:5.73999998852 9:7.5 10:6.0 11:7.0 12:5.0 13:2.5 14:6.55428571194 15:1.0 16:1.0 
1.0 2:16.0 4:7.5 6:5.0 10:40.0 11:1.0 12:10.0 16:1.0 
1.0 1:8.1 2:20.0 4:7.5 6:5.666666667 10:50.0 11:1.0 12:10.0 16:1.0 
1.0 2:16.0 4:7.5 6:5.0 8:9.07999998184 10:40.0 11:7.0 12:10.0 14:8.46363636107 16:1.0 
1.0 2:30.0 4:6.666666668 6:6.333333333 7:3.0 8:6.83999998632 9:5.0 10:15.0 11:5.0 12:5.0 13:5.833333333 14:6.705882349 15:1.0 16:1.0 
-1.0 1:7.0 2:30.0 4:4.166666668 6:8.666666667 7:3.0 8:4.99999998333 9:0.833333333 10:15.0 11:3.0 12:5.0 13:10.0 14:6.14285713408 15:1.0 16:1.0 
1.0 1:6.7 2:45.0 3:3.0 4:4.166666668 6:7.0 7:3.0 9:5.833333333 11:10.0 12:2.5 13:5.0 14:7.0999999645 15:1.0 16:1.0 
-1.0 2:45.0 4:5.0 6:8.0 7:3.0 8:6.50799998698 9:0.833333333 10:15.0 11:4.0 13:10.0 14:6.61999999448 16:1.0 
-1.0 1:7.3 2:35.0 4:5.0 6:6.0 8:7.96666665339 10:7.0 11:4.0 14:7.67058823078 
1.0 1:7.4 2:32.0 4:1.666666668 6:8.0 7:1.0 8:5.47499998631 10:10.0 11:6.0 12:0.833333333 13:7.5 14:6.59166666392 16:1.0 
1.0 1:6.1 2:45.0 4:2.5 5:1.0 6:9.0 7:5.0 8:7.18999998202 9:5.0 10:15.0 11:4.0 12:2.5 13:10.0 14:6.74181817569 15:1.0 16:1.0 
1.0 2:30.0 4:3.333333333 5:1.0 6:7.0 7:3.0 8:7.62857141767 9:10.0 10:15.0 11:3.0 12:5.833333333 13:8.333333333 14:7.72999999227 15:1.0 16:1.0 
-0.45514118748592997 1:7.3 2:20.0 4:7.5 6:5.666666667 8:6.14999998975 10:50.0 11:6.0 12:10.0 14:6.70869564926 16:1.0 
1.0 2:45.0 4:5.0 6:8.0 7:3.0 8:5.29999998675 9:0.833333333 10:15.0 11:4.0 13:10.0 14:6.29285713836 16:1.0 
-1.0 2:30.0 4:1.666666668 5:1.0 6:6.333333333 7:3.0 8:7.18999998202 9:10.0 10:15.0 11:4.0 12:5.0 13:4.166666668 14:6.74181817569 15:1.0 16:1.0 
-1.0 1:5.1 2:32.0 4:1.666666668 6:8.0 7:1.0 8:6.87499999141 10:10.0 11:6.0 12:0.833333333 13:7.5 14:6.73928571188 16:1.0 
-1.0 1:9.0 2:30.0 4:6.666666668 6:6.333333333 7:3.0 8:5.83333331389 9:5.0 10:15.0 11:4.0 12:5.0 13:5.833333333 14:6.61999999338 15:1.0 16:1.0 
-1.0 1:5.7 2:45.0 4:7.5 6:5.0 7:4.0 8:5.94999999008 9:5.0 11:6.0 14:6.26818181533 15:1.0 
1.0 2:30.0 4:1.666666668 6:6.333333333 7:3.0 8:6.21249999223 9:8.333333333 10:15.0 11:5.0 13:0.833333333 14:6.18124999614 15:1.0 16:1.0 
-1.0 2:45.0 4:5.0 6:8.0 7:3.0 8:7.74999996125 9:0.833333333 10:15.0 11:4.0 13:10.0 14:6.48181817593 16:1.0 
0.5049685838186305 1:8.9 2:45.0 4:5.0 6:6.0 7:6.0 8:7.84999998692 9:10.0 11:2016.0 12:7.5 13:5.0 14:8.19999999089 15:1.0 
1.0 1:7.9 2:30.0 4:1.666666668 6:8.333333333 7:1.0 8:8.01999998396 10:30.0 11:2.0 12:0.833333333 13:10.0 14:8.01999998396 15:1.0 16:1.0 
-1.0 1:7.0 2:20.0 4:7.5 6:6.666666667 8:6.66666664444 10:50.0 11:3.0 12:10.0 14:6.78571427602 16:1.0 
1.0 1:7.2 2:45.0 3:3.0 4:4.166666668 6:7.0 7:3.0 8:7.33999998532 9:5.833333333 11:4.0 12:2.5 13:5.0 14:7.2533333285 15:1.0 16:1.0 
0.051867319446007205 1:10.0 2:20.0 4:7.5 6:7.0 7:6.0 8:8.63999998272 10:50.0 11:8.0 12:10.0 14:8.25945945723 16:1.0 
1.0 1:10.0 2:45.0 3:3.0 4:4.166666668 6:7.0 7:3.0 8:7.0999999858 9:5.833333333 11:4.0 12:2.5 13:5.0 14:6.51666666124 15:1.0 16:1.0 
-1.0 1:5.6 2:30.0 4:1.666666668 6:8.333333333 7:1.0 8:7.36249998159 10:30.0 11:2.0 12:0.833333333 13:10.0 14:7.36249998159 15:1.0 16:1.0 
1.0 2:20.0 4:10.0 6:6.0 8:6.35714284806 10:8.0 11:6.0 14:7.11249999704 
1.0 1:7.9 2:30.0 4:4.166666668 6:8.666666667 7:3.0 8:7.93999998412 9:0.833333333 10:15.0 11:3.0 12:5.0 13:10.0 14:7.99999999 15:1.0 16:1.0 
-1.0 2:16.0 4:7.5 6:5.0 10:40.0 11:1.0 12:10.0 16:1.0 
-1.0 2:30.0 4:1.666666668 6:6.333333333 7:3.0 8:6.1999999845 9:8.333333333 10:15.0 11:5.0 13:0.833333333 14:7.23749999548 15:1.0 16:1.0 
1.0 2:30.0 4:5.0 6:7.666666667 7:1.0 10:30.0 11:1.0 12:0.833333333 13:10.0 16:1.0 
1.0 2:32.0 4:5.0 6:6.966666667 7:1.0 8:5.53333331489 10:10.0 11:4.0 12:0.833333333 13:7.5 14:5.74999999281 16:1.0 
-1.0 2:45.0 3:3.0 4:4.166666668 5:1.0 6:7.0 7:3.0 8:6.89999998275 9:5.833333333 11:4.0 12:2.5 13:5.0 14:6.02499999247 15:1.0 16:1.0 
1.0 2:32.0 4:5.0 6:6.966666667 7:1.0 8:6.47499998381 10:10.0 11:2.0 12:0.833333333 13:7.5 14:6.47499998381 16:1.0 
1.0 2:30.0 4:5.0 6:7.666666667 7:1.0 8:7.63333330789 10:30.0 11:2.0 12:0.833333333 13:10.0 14:7.63333330789 16:1.0 
-1.0 1:6.65 2:30.0 3:1.0 6:7.0 7:4.0 8:7.07499998231 9:10.0 10:15.0 11:8.0 14:6.68260869275 15:1.0 
1.0 2:10.0 3:3.0 4:1.666666668 6:4.666666667 9:6.666666668 10:20.0 11:1.0 12:2.5 13:6.666666668 16:1.0 
-1.0 1:7.3 2:20.0 3:1.0 4:1.666666668 5:1.0 6:6.333333333 9:10.0 10:23.0 11:1.0 12:2.5 13:8.333333333 16:1.0 
-1.0 1:9.6 2:30.0 4:1.666666668 6:6.333333333 7:3.0 8:7.3714285609 9:8.333333333 10:15.0 11:5.0 13:0.833333333 14:7.31578946983 15:1.0 16:1.0 
1.0 2:45.0 4:5.0 6:8.0 7:3.0 8:4.97499999378 9:0.833333333 10:15.0 11:8.0 13:10.0 14:5.29062499835 16:1.0 
-1.0 1:5.6 2:30.0 4:2.5 6:7.0 7:5.0 8:6.41999998716 9:10.0 11:5.0 12:2.5 13:10.0 14:6.96923076387 15:1.0 
1.0 1:7.2 2:45.0 4:6.666666668 6:7.333333333 7:3.0 8:6.11666665647 9:6.666666668 11:5.0 12:4.166666668 13:8.333333333 14:6.27647058454 15:1.0 16:1.0 
1.0 2:30.0 4:1.666666668 6:7.333333333 7:1.0 10:30.0 11:1.0 12:0.833333333 13:10.0 16:1.0 
1.0 2:30.0 3:1.0 4:1.666666668 6:6.6 7:4.0 8:4.89999998367 9:10.0 10:15.0 11:3.0 12:4.166666668 13:3.333333333 14:5.6214285634 15:1.0 16:1.0 
-1.0 2:10.0 3:3.0 4:1.666666668 6:4.666666667 9:6.666666668 10:20.0 11:1.0 12:2.5 13:6.666666668 16:1.0 
1.0 2:45.0 4:5.0 6:8.0 7:3.0 8:4.2999999785 9:0.833333333 10:15.0 11:8.0 13:10.0 14:5.54799999778 16:1.0 
1.0 2:30.0 4:1.666666668 6:6.333333333 7:3.0 8:5.6479999887 9:10.0 10:15.0 11:4.0 12:5.0 13:4.166666668 14:5.73384614944 15:1.0 16:1.0 
-1.0 2:45.0 3:3.0 4:4.166666668 6:7.0 7:3.0 8:6.19999999114 9:5.833333333 11:5.0 12:2.5 13:5.0 14:6.2627777743 15:1.0 16:1.0 
-1.0 2:21.0 4:9.166666668 6:6.333333333 10:5.0 11:1.0 
1.0 2:32.0 4:5.0 5:1.0 6:6.966666667 7:1.0 8:7.36666664211 10:10.0 11:2.0 12:0.833333333 13:7.5 14:7.36666664211 16:1.0 
1.0 1:7.2 2:45.0 4:5.0 6:6.0 7:6.0 8:6.18571427688 9:10.0 11:6.0 12:7.5 13:5.0 14:6.67999999733 15:1.0 
1.0 1:5.9 2:45.0 4:6.666666668 6:7.333333333 7:3.0 8:6.03333331322 9:6.666666668 11:3.0 12:4.166666668 13:8.333333333 14:7.17499999103 15:1.0 16:1.0 
-1.0 1:7.0 2:30.0 4:1.666666668 6:6.333333333 7:3.0 8:7.03999998592 9:10.0 10:15.0 11:3.0 12:5.0 13:4.166666668 14:7.33999999266 15:1.0 16:1.0 
-1.0 1:6.25 2:45.0 4:2.5 6:9.0 7:5.0 8:6.6285714191 9:5.0 10:15.0 11:5.0 12:2.5 13:10.0 14:6.86052631218 15:1.0 16:1.0 
-1.0 2:45.0 3:3.0 4:4.166666668 6:7.0 7:3.0 8:6.97199998606 9:5.833333333 11:4.0 12:2.5 13:5.0 14:7.14692307143 15:1.0 16:1.0 
1.0 2:10.0 3:3.0 4:1.666666668 6:4.666666667 9:6.666666668 10:20.0 11:1.0 12:2.5 13:6.666666668 16:1.0 
1.0 1:7.2 2:30.0 4:1.666666668 6:8.333333333 7:1.0 8:7.87999998424 10:30.0 11:2.0 12:0.833333333 13:10.0 14:7.87999998424 15:1.0 16:1.0 
-1.0 2:21.0 4:9.166666668 6:6.333333333 8:6.63333331122 10:5.0 11:2.0 14:6.63333331122 
-0.5904265481029645 1:7.8 2:45.0 4:5.0 5:1.0 6:6.0 7:6.0 8:6.9999999825 9:10.0 11:4.0 12:7.5 13:5.0 14:7.43076922505 15:1.0 
1.0 1:6.2 2:32.0 4:1.666666668 6:8.0 7:1.0 8:6.82222221464 10:10.0 11:7.0 12:0.833333333 13:7.5 14:6.52580644951 16:1.0 
1.0 1:4.1 2:32.0 4:1.666666668 6:8.0 7:1.0 8:5.23333331589 10:10.0 11:3.0 12:0.833333333 13:7.5 14:5.77857142032 16:1.0 
-1.0 1:9.1 2:15.0 4:5.0 5:1.0 6:5.0 7:6.0 8:8.21666665297 9:10.0 10:30.0 11:6.0 12:5.0 13:5.0 14:7.96956521393 15:1.0 
1.0 1:7.2 2:30.0 3:1.0 6:7.0 7:4.0 8:6.91111110343 9:10.0 10:15.0 11:5.0 14:6.79285713962 15:1.0 
1.0 1:7.1 2:30.0 4:3.333333333 6:7.0 7:3.0 8:7.44999996275 9:10.0 10:15.0 11:4.0 12:5.833333333 13:8.333333333 14:7.02857141853 15:1.0 16:1.0 
1.0 2:30.0 4:6.666666668 6:6.333333333 7:3.0 8:7.71999998456 9:5.0 10:15.0 11:5.0 12:5.0 13:5.833333333 14:7.1117647017 15:1.0 16:1.0 
1.0 1:7.0 2:36.0 3:1.0 4:2.5 6:7.0 7:6.0 8:6.03333331322 9:12.5 10:9.0 11:8.0 12:5.0 13:7.5 14:6.45416666398 15:1.0 
-1.0 1:6.8 2:30.0 4:1.666666668 6:8.333333333 7:1.0 8:6.64999996675 10:30.0 11:7.0 12:0.833333333 13:10.0 14:7.01935483645 15:1.0 16:1.0 
0.15343420769733712 1:5.4 2:30.0 4:3.333333333 6:7.0 7:3.0 8:5.14999997425 9:10.0 10:15.0 11:3.0 12:5.833333333 13:8.333333333 14:6.02857141996 15:1.0 16:1.0 
-1.0 1:7.0 2:20.0 4:7.5 6:5.666666667 8:6.43333331189 10:50.0 11:2.0 12:10.0 14:6.43333331189 16:1.0 
-1.0 1:8.8 2:45.0 4:2.5 6:7.0 7:6.0 8:8.01428570284 9:10.0 11:6.0 12:2.5 13:5.0 14:8.32692307372 15:1.0 
-1.0 1:7.6 2:30.0 4:6.666666668 6:6.333333333 7:3.0 8:5.76666664744 9:5.0 10:15.0 11:4.0 12:5.0 13:5.833333333 14:7.09999999493 15:1.0 16:1.0 
-1.0 2:30.0 4:3.333333333 6:7.0 7:3.0 8:7.199999976 9:10.0 10:15.0 11:6.0 12:5.833333333 13:8.333333333 14:6.70999999521 15:1.0 16:1.0 
1.0 2:30.0 3:1.0 4:1.666666668 6:6.6 7:4.0 8:6.999999965 9:10.0 10:15.0 11:2.0 12:4.166666668 13:3.333333333 14:6.999999965 15:1.0 16:1.0 
1.0 1:7.4 2:45.0 4:6.666666668 6:7.333333333 7:3.0 8:5.57499998606 9:6.666666668 11:4.0 12:4.166666668 13:8.333333333 14:6.52666666232 15:1.0 16:1.0 
-1.0 1:8.0 2:30.0 4:1.666666668 6:6.333333333 7:3.0 8:6.36666664544 9:10.0 10:15.0 11:8.0 12:5.0 13:4.166666668 14:6.75333332883 15:1.0 16:1.0 
-1.0 2:30.0 4:1.666666668 5:1.0 6:8.333333333 7:1.0 8:8.14999997283 10:30.0 11:2.0 12:0.833333333 13:10.0 14:8.14999997283 15:1.0 16:1.0 
-1.0 2:30.0 3:1.0 4:1.666666668 6:6.6 7:4.0 8:8.29999997233 9:10.0 10:15.0 11:2.0 12:4.166666668 13:3.333333333 14:8.29999997233 15:1.0 16:1.0 
1.0 1:8.1 2:30.0 3:3.0 4:10.0 6:8.0 7:6.0 8:6.86428570448 9:7.5 10:15.0 11:7.0 12:5.0 13:6.25 14:6.20481481252 15:1.0 16:1.0 
-1.0 2:30.0 4:1.666666668 6:6.333333333 7:3.0 8:7.01999998596 9:10.0 10:15.0 11:4.0 12:5.0 13:4.166666668 14:7.11538460991 15:1.0 16:1.0 
-1.0 1:9.4 2:15.0 4:5.0 5:1.0 6:5.0 7:6.0 8:7.4999999875 9:10.0 10:30.0 11:6.0 12:5.0 13:5.0 14:7.13928571174 15:1.0 
1.0 1:5.7 2:45.0 4:7.5 6:7.0 7:6.0 8:6.87499998281 9:10.0 11:7.0 12:5.0 13:7.5 14:6.38392856915 15:1.0 
1.0 1:6.1 2:39.0 4:7.5 6:5.0 7:6.0 8:5.12499998719 9:7.5 10:6.0 11:7.0 12:5.0 13:2.5 14:6.18592592363 15:1.0 16:1.0 
-1.0 1:5.0 2:45.0 4:2.0 6:10.0 7:3.0 8:5.7999999884 9:7.0 11:6.0 12:3.0 13:7.0 14:5.86363636097 15:1.0 16:1.0 
1.0 1:5.0 2:30.0 4:3.333333333 6:7.0 7:3.0 8:6.08333332319 9:10.0 10:15.0 11:5.0 12:5.833333333 13:8.333333333 14:6.11499999694 15:1.0 16:1.0 
-1.0 2:30.0 4:1.666666668 6:6.333333333 7:3.0 8:5.64999998588 9:10.0 10:15.0 11:4.0 12:5.0 13:4.166666668 14:5.70999999429 15:1.0 16:1.0 
-1.0 1:5.0 2:30.0 6:3.0 7:4.0 8:7.05999998588 9:10.0 10:15.0 11:6.0 14:6.11649999694 15:1.0 
1.0 1:7.2 2:30.0 4:2.5 6:7.0 7:5.0 8:5.799999942 9:10.0 11:5.0 12:2.5 13:10.0 14:5.82222221575 15:1.0 
-1.0 1:7.5 2:30.0 4:2.5 6:7.0 7:5.0 8:7.45714284649 9:10.0 11:5.0 12:2.5 13:10.0 14:7.32777777371 15:1.0 
1.0 1:7.4 2:30.0 6:3.0 7:4.0 8:7.37499998156 9:10.0 10:15.0 11:6.0 14:6.38333333029 15:1.0 
1.0 2:30.0 4:1.666666668 6:7.333333333 7:1.0 10:30.0 11:1.0 12:0.833333333 13:10.0 16:1.0 
-1.0 2:30.0 4:3.333333333 5:1.0 6:7.0 7:3.0 8:7.43999998512 9:10.0 10:15.0 11:5.0 12:5.833333333 13:8.333333333 14:7.04705881938 15:1.0 16:1.0 
1.0 1:6.1 2:30.0 6:8.0 7:6.0 8:6.999999986 9:10.0 10:15.0 11:6.0 13:7.5 14:6.85208333048 15:1.0 
-1.0 2:45.0 4:5.0 5:1.0 6:8.0 7:3.0 8:7.21666665464 9:0.833333333 10:15.0 11:4.0 13:10.0 14:7.44999999468 16:1.0 
-0.11471995822207127 1:6.5 2:45.0 4:5.0 6:6.0 7:6.0 8:6.3333333263 9:10.0 11:7.0 12:7.5 13:5.0 14:6.38076922832 15:1.0 
1.0 2:10.0 3:3.0 4:1.666666668 6:4.666666667 9:6.666666668 10:20.0 11:1.0 12:2.5 13:6.666666668 16:1.0 
1.0 2:32.0 4:5.0 6:6.966666667 7:1.0 8:5.27499998681 10:10.0 11:4.0 12:0.833333333 13:7.5 14:6.29499999371 16:1.0 
1.0 2:30.0 4:5.0 6:7.666666667 7:1.0 8:7.93333330689 10:30.0 11:2.0 12:0.833333333 13:10.0 14:7.93333330689 16:1.0 
-1.0 1:9.5 2:30.0 4:6.666666668 6:6.333333333 7:3.0 8:8.9999999775 9:5.0 10:15.0 11:4.0 12:5.0 13:5.833333333 14:8.03999999464 15:1.0 16:1.0 
1.0 2:30.0 4:1.666666668 6:6.333333333 7:3.0 8:7.01999998596 9:8.333333333 10:15.0 11:5.0 13:0.833333333 14:7.32941176039 15:1.0 16:1.0 
1.0 1:6.2 2:30.0 4:2.5 6:8.0 7:5.0 8:4.099999959 9:2.5 11:4.0 12:2.5 13:10.0 14:5.87499999266 15:1.0 16:1.0 
-1.0 2:30.0 4:1.666666668 6:7.333333333 7:1.0 8:8.7999999824 10:30.0 11:3.0 12:0.833333333 13:10.0 14:7.59090908401 16:1.0 
-1.0 1:5.8 2:30.0 4:6.666666668 6:6.333333333 7:3.0 8:5.04999997475 9:5.0 10:15.0 11:4.0 12:5.0 13:5.833333333 14:5.68999999431 15:1.0 16:1.0 
-1.0 1:6.9 2:45.0 4:6.666666668 5:1.0 6:7.333333333 7:3.0 8:7.04999998237 9:6.666666668 11:3.0 12:4.166666668 13:8.333333333 14:6.99999999125 15:1.0 16:1.0 
-1.0 1:5.8 2:45.0 4:7.5 6:5.0 7:4.0 8:6.65999998668 9:5.0 11:6.0 14:6.39999999754 15:1.0 
-1.0 2:30.0 3:1.0 4:1.666666668 6:6.6 7:4.0 8:6.02857141996 9:10.0 10:15.0 11:7.0 12:4.166666668 13:3.333333333 14:6.71777777529 15:1.0 16:1.0 
0.3822350012792989 2:45.0 4:8.333333333 6:6.666666667 7:3.0 8:8.97999998204 9:10.0 11:4.0 12:3.333333333 13:4.166666668 14:8.43333332631 15:1.0 
1.0 1:8.7 2:45.0 4:6.666666668 6:7.333333333 7:3.0 8:7.46666665837 9:6.666666668 11:5.0 12:4.166666668 13:8.333333333 14:7.17222221824 15:1.0 16:1.0 
-1.0 1:5.6 2:20.0 4:10.0 6:6.0 8:7.11999998576 10:8.0 11:5.0 14:7.35999999632 
-1.0 1:4.9 2:20.0 4:7.5 6:7.0 7:6.0 8:5.93333331356 10:50.0 11:2.0 12:10.0 14:5.93333331356 16:1.0 
-1.0 1:6.7 2:30.0 3:3.0 4:10.0 5:1.0 6:8.0 7:6.0 8:7.09999998225 9:7.5 10:15.0 11:7.0 12:5.0 13:6.25 14:7.21925925659 15:1.0 16:1.0 
-1.0 1:7.6 2:45.0 4:6.666666668 6:7.333333333 7:3.0 8:5.83333331389 9:6.666666668 11:3.0 12:4.166666668 13:8.333333333 14:6.02499998996 15:1.0 16:1.0 
1.0 1:7.9 2:45.0 4:4.0 6:8.0 7:6.0 8:7.93333332011 9:9.0 11:6.0 12:8.0 13:9.0 14:7.12173912734 15:1.0 
-1.0 1:6.8 2:30.0 3:1.0 5:1.0 6:7.0 7:4.0 8:7.199999988 9:10.0 10:15.0 11:6.0 14:7.54642856873 15:1.0 
-1.0 1:7.5 2:30.0 4:1.666666668 6:8.333333333 7:1.0 8:6.56666665572 10:30.0 11:4.0 12:0.833333333 13:10.0 14:7.08823528995 15:1.0 16:1.0 
-1.0 2:45.0 4:5.0 6:8.0 7:3.0 8:5.23333331589 9:0.833333333 10:15.0 11:8.0 13:10.0 14:5.59826086713 16:1.0 
1.0 1:6.5 2:30.0 4:2.5 6:8.0 7:5.0 8:6.13333331289 9:2.5 11:4.0 12:2.5 13:10.0 14:6.82857142369 15:1.0 16:1.0 
1.0 1:7.6 2:45.0 4:7.5 6:8.0 7:6.0 8:7.05714284706 9:7.5 11:7.0 12:5.0 13:7.5 14:6.90624999784 15:1.0 
1.0 2:30.0 3:1.0 4:1.666666668 6:6.6 7:4.0 8:4.89999998367 9:10.0 10:15.0 11:3.0 12:4.166666668 13:3.333333333 14:5.84999999164 15:1.0 16:1.0 
-1.0 1:8.0 2:45.0 4:2.5 6:9.0 7:5.0 8:5.84999998537 9:5.0 10:15.0 11:5.0 12:2.5 13:10.0 14:6.48749999595 15:1.0 16:1.0 
-1.0 2:15.0 4:5.0 6:5.0 7:6.0 8:4.07777777325 9:10.0 10:30.0 11:9.0 12:5.0 13:5.0 14:5.41388888739 15:1.0 
-1.0 2:16.0 4:7.5 6:5.0 10:40.0 11:1.0 12:10.0 16:1.0 
1.0 2:30.0 4:6.666666668 6:6.333333333 7:3.0 8:7.16666665472 9:5.0 10:15.0 11:5.0 12:5.0 13:5.833333333 14:6.695882349 15:1.0 16:1.0 
1.0 2:30.0 4:1.666666668 6:7.333333333 7:1.0 10:30.0 11:1.0 12:0.833333333 13:10.0 16:1.0 
1.0 2:30.0 3:1.0 4:1.666666668 6:6.6 7:4.0 8:7.799999974 9:10.0 10:15.0 11:2.0 12:4.166666668 13:3.333333333 14:7.799999974 15:1.0 16:1.0 
1.0 1:5.3 2:45.0 4:7.5 6:5.0 7:4.0 8:5.44999999092 9:5.0 11:6.0 14:5.70863636104 15:1.0 
1.0 2:21.0 4:9.166666668 6:6.333333333 8:7.199999976 10:5.0 11:2.0 14:7.199999976 
1.0 2:45.0 3:3.0 4:4.166666668 6:7.0 7:3.0 8:6.71999998656 9:5.833333333 11:4.0 12:2.5 13:5.0 14:7.08461537917 15:1.0 16:1.0 
-1.0 1:8.1 2:45.0 4:6.666666668 6:7.333333333 7:3.0 8:8.45999998308 9:6.666666668 11:3.0 12:4.166666668 13:8.333333333 14:8.14999998981 15:1.0 16:1.0 
1.0 1:5.8 2:30.0 6:3.0 7:4.0 8:5.58333332403 9:10.0 10:15.0 11:6.0 14:6.02714285427 15:1.0 
1.0 1:5.9 2:30.0 6:8.0 7:6.0 8:8.75999998248 9:10.0 10:15.0 11:5.0 13:7.5 14:7.30526315405 15:1.0 
1.0 1:5.6 2:45.0 4:6.666666668 6:7.333333333 7:3.0 8:6.33333332278 9:6.666666668 11:5.0 12:4.166666668 13:8.333333333 14:5.77777777457 15:1.0 16:1.0 
-1.0 1:6.2 2:30.0 4:1.666666668 6:6.333333333 7:3.0 8:6.34999996825 9:8.333333333 10:15.0 11:5.0 13:0.833333333 14:6.85882352538 15:1.0 16:1.0 
1.0 2:20.0 4:10.0 6:6.0 8:7.62857141767 10:8.0 11:6.0 14:7.88461538158 
-1.0 1:8.7 2:20.0 4:7.5 6:6.666666667 10:50.0 11:1.0 12:10.0 16:1.0 
-1.0 1:6.7 2:30.0 6:3.0 7:4.0 8:7.54999996225 9:10.0 10:15.0 11:6.0 14:6.38235293742 15:1.0 
-1.0 2:30.0 4:1.666666668 6:7.333333333 7:1.0 10:30.0 11:1.0 12:0.833333333 13:10.0 16:1.0 
-1.0 1:7.8 2:20.0 4:10.0 6:6.0 8:7.01666665497 10:8.0 11:3.0 14:6.95454544822 
-1.0 1:8.3 2:45.0 4:8.333333333 6:6.666666667 7:3.0 8:7.78333332036 9:10.0 11:4.0 12:3.333333333 13:4.166666668 14:7.54999999461 15:1.0 
1.0 1:6.9 2:30.0 4:2.5 6:7.0 7:5.0 8:7.0999999858 9:10.0 11:5.0 12:2.5 13:10.0 14:5.7524999964 15:1.0 
-1.0 1:6.1 2:30.0 4:1.666666668 6:8.333333333 7:1.0 8:6.87499998281 10:30.0 11:2.0 12:0.833333333 13:10.0 14:6.87499998281 15:1.0 16:1.0 
1.0 1:7.8 2:30.0 4:3.333333333 6:7.0 7:3.0 8:6.04999996975 9:10.0 10:15.0 11:4.0 12:5.833333333 13:8.333333333 14:6.25999999374 15:1.0 16:1.0 
-1.0 1:5.5 2:30.0 4:1.666666668 6:8.333333333 7:1.0 8:6.74999998312 10:30.0 11:2.0 12:0.833333333 13:10.0 14:6.74999998312 15:1.0 16:1.0 
1.0 2:45.0 4:5.0 6:2.0 7:6.0 8:6.62222221486 9:5.0 11:7.0 12:2.5 13:5.0 14:6.65642856905 16:1.0 
1.0 1:6.0 2:30.0 4:2.5 6:8.0 7:5.0 8:7.37499998156 9:2.5 11:5.0 12:2.5 13:10.0 14:6.68470587842 15:1.0 16:1.0 
-1.0 2:10.0 3:3.0 4:1.666666668 6:4.666666667 9:6.666666668 10:20.0 11:1.0 12:2.5 13:6.666666668 16:1.0 
-1.0 1:10.0 2:30.0 4:1.666666668 6:6.333333333 7:3.0 8:7.13999998572 9:8.333333333 10:15.0 11:9.0 13:0.833333333 14:6.43124999799 15:1.0 16:1.0 
1.0 1:7.4 2:30.0 3:3.0 4:10.0 6:8.0 7:6.0 8:4.06666665311 9:7.5 10:15.0 11:8.0 12:5.0 13:6.25 14:6.46153845905 15:1.0 16:1.0 
1.0 1:4.4 2:30.0 6:8.0 7:6.0 8:6.56666664478 9:10.0 10:15.0 11:7.0 13:7.5 14:6.17074073846 15:1.0 
-1.0 2:30.0 4:1.666666668 6:7.333333333 7:1.0 10:30.0 11:1.0 12:0.833333333 13:10.0 16:1.0 
1.0 1:6.1 2:20.0 4:7.5 6:5.666666667 8:6.74999996625 10:50.0 11:2.0 12:10.0 14:6.74999996625 16:1.0 
-1.0 1:9.0 2:45.0 4:5.0 6:6.0 7:6.0 8:8.0888888799 9:10.0 11:2017.0 12:7.5 13:5.0 14:7.99999999556 15:1.0 
-1.0 2:45.0 4:8.333333333 6:6.666666667 7:3.0 8:6.81666665531 9:10.0 11:5.0 12:3.333333333 13:4.166666668 14:5.88562499632 15:1.0 
-0.2416986723217977 1:9.1 2:45.0 4:5.0 6:9.0 7:6.0 9:7.5 11:18.0 12:5.0 13:10.0 14:8.45999998308 15:1.0 16:1.0 
1.0 1:5.9 2:30.0 6:3.0 7:4.0 8:5.84999999025 9:10.0 10:15.0 11:6.0 14:6.40454545163 15:1.0 
-1.0 1:7.4 2:45.0 4:6.666666668 6:7.333333333 7:3.0 8:6.02999998492 9:6.666666668 11:4.0 12:4.166666668 13:8.333333333 14:5.89272726737 15:1.0 16:1.0 
-1.0 1:7.0 2:45.0 4:4.0 6:8.0 7:6.0 9:9.0 11:11.0 12:8.0 13:9.0 14:3.92352940946 15:1.0 
-1.0 2:21.0 4:9.166666668 6:6.333333333 8:8.16666663944 10:5.0 11:4.0 14:7.1888888809 
-1.0 2:30.0 4:3.333333333 6:7.0 7:3.0 8:6.34999998942 9:10.0 10:15.0 11:5.0 12:5.833333333 13:8.333333333 14:6.41176470211 15:1.0 16:1.0 
1.0 2:30.0 4:1.666666668 6:6.333333333 7:3.0 8:4.70999998823 9:10.0 10:15.0 11:4.0 12:5.0 13:4.166666668 14:5.13999999533 15:1.0 16:1.0 
1.0 1:6.0 2:30.0 4:2.5 6:7.0 7:5.0 8:6.23333332294 9:10.0 11:5.0 12:2.5 13:10.0 14:6.5352941138 15:1.0 
1.0 1:7.2 2:45.0 4:10.0 6:7.0 7:6.0 8:7.34999998775 9:7.5 11:6.0 12:7.5 13:2.5 14:6.91749999712 15:1.0 
-1.0 1:7.1 2:45.0 4:5.0 6:6.0 7:6.0 8:5.199999974 9:10.0 11:7.0 12:7.5 13:5.0 14:5.59411764377 15:1.0 
-1.0 2:45.0 4:5.0 6:2.0 7:6.0 8:6.5624999918 9:5.0 11:7.0 12:2.5 13:5.0 14:6.89266666437 16:1.0 
1.0 1:5.7 2:32.0 4:1.666666668 6:8.0 7:1.0 8:7.06666665489 10:10.0 11:6.0 12:0.833333333 13:7.5 14:6.66999999667 16:1.0 
1.0 1:9.3 2:15.0 4:5.0 6:5.0 7:6.0 8:7.94999998675 9:10.0 10:30.0 11:6.0 12:5.0 13:5.0 14:7.55217390976 15:1.0 
1.0 1:6.5 2:45.0 4:2.5 5:1.0 6:9.0 7:5.0 8:6.51249999186 9:5.0 10:15.0 11:5.0 12:2.5 13:10.0 14:6.02380952094 15:1.0 16:1.0 
-1.0 2:30.0 4:1.666666668 6:6.333333333 7:3.0 8:7.499999985 9:10.0 10:15.0 11:4.0 12:5.0 13:4.166666668 14:7.11538460991 15:1.0 16:1.0 
-1.0 2:45.0 4:5.0 6:8.0 7:3.0 8:6.45599998709 9:0.833333333 10:15.0 11:4.0 13:10.0 14:6.36749999469 16:1.0 
1.0 1:7.2 2:20.0 4:7.5 6:6.666666667 8:6.21666665631 10:50.0 11:3.0 12:10.0 14:6.50555554833 16:1.0 
-1.0 2:30.0 4:1.666666668 6:6.333333333 7:3.0 8:7.27999998544 9:10.0 10:15.0 11:4.0 12:5.0 13:4.166666668 14:7.18461537909 15:1.0 16:1.0 
-1.0 2:30.0 4:1.666666668 6:6.333333333 7:3.0 8:6.88571427588 9:8.333333333 10:15.0 11:5.0 13:0.833333333 14:6.7233333296 15:1.0 16:1.0 
1.0 1:4.6 2:45.0 4:5.0 6:6.0 7:6.0 8:6.31999998736 9:10.0 11:6.0 12:7.5 13:5.0 14:6.59090908791 15:1.0 
0.3923818732748501 1:9.1 2:45.0 4:4.0 6:8.0 7:6.0 8:7.47142856076 9:9.0 11:7.0 12:8.0 13:9.0 14:7.56666666351 15:1.0 
-1.0 2:30.0 4:1.666666668 5:1.0 6:7.333333333 7:1.0 10:30.0 11:1.0 12:0.833333333 13:10.0 16:1.0 
1.0 1:5.25 2:30.0 3:1.0 6:7.0 7:4.0 8:6.26666665622 9:10.0 10:15.0 11:6.0 14:6.14090908812 15:1.0 
1.0 2:16.0 4:7.5 6:5.0 10:40.0 11:1.0 12:10.0 16:1.0 
-1.0 1:5.6 2:30.0 4:1.666666668 6:6.333333333 7:3.0 8:7.69999997433 9:8.333333333 10:15.0 11:7.0 13:0.833333333 14:6.52307692057 15:1.0 16:1.0 
-1.0 2:16.0 4:7.5 6:5.0 10:40.0 11:1.0 12:10.0 16:1.0 
-1.0 1:9.2 2:30.0 3:1.0 6:7.0 7:4.0 8:7.94999998675 9:10.0 10:15.0 11:6.0 14:8.04999999712 15:1.0 
-1.0 1:6.85 2:30.0 4:2.5 6:7.0 7:5.0 8:7.42142856083 9:10.0 11:7.0 12:2.5 13:10.0 14:6.21874999741 15:1.0 
-1.0 2:30.0 4:1.666666668 6:7.333333333 7:1.0 8:5.84999997075 10:30.0 11:2.0 12:0.833333333 13:10.0 14:5.84999997075 16:1.0 
1.0 2:10.0 3:3.0 4:1.666666668 5:1.0 6:4.666666667 9:6.666666668 10:20.0 11:1.0 12:2.5 13:6.666666668 16:1.0 
1.0 2:45.0 3:3.0 4:4.166666668 6:7.0 7:3.0 8:4.84999999192 9:5.833333333 11:6.0 12:2.5 13:5.0 14:5.93681817912 15:1.0 16:1.0 
-1.0 1:5.3 2:30.0 4:1.666666668 6:8.333333333 7:1.0 8:7.16249998209 10:30.0 11:2.0 12:0.833333333 13:10.0 14:7.16249998209 15:1.0 16:1.0 
1.0 1:7.2 2:45.0 4:6.666666668 6:7.333333333 7:3.0 8:6.27499998431 9:6.666666668 11:3.0 12:4.166666668 13:8.333333333 14:6.12857141982 15:1.0 16:1.0 
-1.0 2:30.0 4:1.666666668 6:6.333333333 7:3.0 8:3.54999998225 9:8.333333333 10:15.0 11:9.0 13:0.833333333 14:5.29357142668 15:1.0 16:1.0 
1.0 1:6.9 2:45.0 4:2.5 6:9.0 7:5.0 8:5.8999999882 9:5.0 10:15.0 11:6.0 12:2.5 13:10.0 14:6.45652173632 15:1.0 16:1.0 
1.0 2:10.0 3:3.0 4:1.666666668 6:4.666666667 8:7.5999999848 9:6.666666668 10:20.0 11:4033.0 12:2.5 13:6.666666668 14:7.80869564878 16:1.0 
0.770076694279064 2:32.0 4:5.0 6:6.966666667 7:1.0 10:10.0 11:2014.0 12:0.833333333 13:7.5 16:1.0 
-1.0 1:8.9 2:30.0 3:1.0 4:1.666666668 6:6.6 7:4.0 8:7.91428570298 9:10.0 10:15.0 11:2016.0 12:4.166666668 13:3.333333333 14:8.10999999189 15:1.0 16:1.0 
1.0 1:5.4 2:20.0 4:7.5 6:6.666666667 8:6.24999996875 10:50.0 11:8.0 12:10.0 14:6.26363636174 16:1.0 
1.0 2:21.0 4:9.166666668 6:6.333333333 8:8.37999998324 10:5.0 11:4.0 14:8.00769230153 
1.0 1:7.3 2:45.0 4:10.0 6:7.0 7:6.0 8:7.53333332078 9:7.5 11:6.0 12:7.5 13:2.5 14:7.37826086636 15:1.0 
1.0 1:9.0 2:30.0 4:4.166666668 6:8.666666667 7:3.0 8:7.41428570369 9:0.833333333 10:15.0 11:5.0 12:5.0 13:10.0 14:7.7708333301 15:1.0 16:1.0 
-1.0 1:5.85 2:30.0 3:1.0 4:5.0 6:9.0 7:6.0 8:6.4999999675 9:10.0 10:15.0 11:7.0 12:5.0 13:10.0 14:5.87304347571 15:1.0 
-1.0 2:30.0 4:1.666666668 6:6.333333333 7:3.0 8:7.33333332111 9:8.333333333 10:15.0 11:5.0 13:0.833333333 14:7.3368421014 15:1.0 16:1.0 
1.0 1:4.5 2:45.0 3:2.0 4:7.5 6:8.0 7:6.0 8:6.45555554838 9:7.5 11:7.0 12:2.5 13:10.0 14:6.28666666457 15:1.0 16:1.0 
-1.0 2:32.0 4:5.0 6:6.966666667 7:1.0 8:6.61249998347 10:10.0 11:2.0 12:0.833333333 13:7.5 14:6.61249998347 16:1.0 
1.0 2:45.0 3:3.0 4:4.166666668 6:7.0 7:3.0 8:9.23999998152 9:5.833333333 11:4.0 12:2.5 13:5.0 14:8.55333332763 15:1.0 16:1.0 
1.0 1:7.2 2:30.0 3:3.0 4:10.0 5:1.0 6:8.0 7:6.0 8:8.03999998392 9:7.5 10:15.0 11:7.0 12:5.0 13:6.25 14:7.35740740468 15:1.0 16:1.0 
1.0 2:30.0 4:1.666666668 6:7.333333333 7:1.0 10:30.0 11:1.0 12:0.833333333 13:10.0 16:1.0 
-1.0 1:8.2 2:36.0 3:1.0 4:2.5 6:7.0 7:6.0 8:6.33749999208 9:12.5 10:9.0 11:8.0 12:5.0 13:7.5 14:6.2821428549 15:1.0 
0.8813877135540291 1:9.2 2:45.0 3:3.0 4:4.166666668 6:7.0 7:3.0 9:5.833333333 11:6.0 12:2.5 13:5.0 14:5.69999999367 15:1.0 16:1.0 
1.0 1:5.6 2:30.0 3:1.0 4:5.0 6:9.0 7:6.0 8:6.51666665581 9:10.0 10:15.0 11:6.0 12:5.0 13:10.0 14:6.70576922819 15:1.0 
-1.0 2:30.0 4:1.666666668 6:7.333333333 7:1.0 8:6.2999999685 10:30.0 11:2.0 12:0.833333333 13:10.0 14:6.2999999685 16:1.0 
-1.0 2:16.0 4:7.5 6:5.0 10:40.0 11:4029.0 12:10.0 14:7.11666665481 16:1.0 
-1.0 2:30.0 4:5.0 6:7.666666667 7:1.0 8:7.67999998464 10:30.0 11:3.0 12:0.833333333 13:10.0 14:7.37272726602 16:1.0 
1.0 1:6.8 2:45.0 4:6.666666668 6:7.333333333 7:3.0 8:5.81666665697 9:6.666666668 11:6.0 12:4.166666668 13:8.333333333 14:6.62399999735 15:1.0 16:1.0 
1.0 1:6.5 2:30.0 6:8.0 7:6.0 8:5.34999997325 9:10.0 10:15.0 11:6.0 13:7.5 14:6.92608695351 15:1.0 
1.0 2:30.0 4:1.666666668 6:6.333333333 7:3.0 8:5.75999998848 9:8.333333333 10:15.0 11:5.0 13:0.833333333 14:5.31599999468 15:1.0 16:1.0 
-1.0 1:5.9 2:30.0 4:2.5 5:1.0 6:8.0 7:5.0 8:6.299999979 9:2.5 11:4.0 12:2.5 13:10.0 14:6.59090908492 15:1.0 16:1.0 
-0.08958176146191946 1:5.2 2:35.0 4:5.0 6:6.0 8:6.53333332244 10:7.0 11:3.0 14:7.36363635694 
1.0 1:5.2 2:45.0 4:5.0 6:5.0 7:6.0 8:6.54999996725 9:7.5 11:8.0 12:2.5 13:7.5 14:6.31749999774 15:1.0 16:1.0 
1.0 1:5.65 2:30.0 4:2.5 6:8.0 7:5.0 8:6.47499998381 9:2.5 11:5.0 12:2.5 13:10.0 14:6.84058823127 15:1.0 16:1.0 
1.0 2:45.0 4:5.0 6:8.0 7:3.0 8:7.11666665481 9:0.833333333 10:15.0 11:4.0 13:10.0 14:7.21249999549 16:1.0 
1.0 1:6.7 2:30.0 3:3.0 4:10.0 6:8.0 7:6.0 8:6.31666665614 9:7.5 10:15.0 11:7.0 12:5.0 13:6.25 14:6.4841379288 15:1.0 16:1.0 
1.0 1:10.0 2:30.0 4:1.666666668 6:6.333333333 7:3.0 8:7.699999989 9:8.333333333 10:15.0 11:5.0 13:0.833333333 14:6.86842104902 15:1.0 16:1.0 
-1.0 1:6.8 2:30.0 3:1.0 6:7.0 7:4.0 8:8.05999998388 9:10.0 10:15.0 11:6.0 14:6.68947368069 15:1.0 
-1.0 1:5.4 2:32.0 4:1.666666668 6:8.0 7:1.0 8:6.19999997933 10:10.0 11:6.0 12:0.833333333 13:7.5 14:6.44999999597 16:1.0 
-1.0 1:8.8 2:20.0 3:1.0 4:1.666666668 6:6.333333333 8:6.04999996975 9:10.0 10:23.0 11:5.0 12:2.5 13:8.333333333 14:6.56923076418 16:1.0 
1.0 1:7.4 2:45.0 4:6.666666668 6:7.333333333 7:3.0 8:5.53333331489 9:6.666666668 11:3.0 12:4.166666668 13:8.333333333 14:5.80714284885 15:1.0 16:1.0 
-1.0 1:5.8 2:30.0 4:1.666666668 6:6.333333333 7:3.0 8:6.97499998256 9:8.333333333 10:15.0 11:5.0 13:0.833333333 14:6.55882352555 15:1.0 16:1.0 
-1.0 2:10.0 3:3.0 4:1.666666668 6:4.666666667 9:6.666666668 10:20.0 11:1.0 12:2.5 13:6.666666668 16:1.0 
1.0 1:6.6 2:45.0 4:7.5 6:5.0 7:4.0 8:6.37499998406 9:5.0 11:6.0 14:6.40909090618 15:1.0 
-1.0 2:30.0 4:6.666666668 6:6.333333333 7:3.0 8:6.2999999895 9:5.0 10:15.0 11:5.0 12:5.0 13:5.833333333 14:7.15789473307 15:1.0 16:1.0 
-1.0 1:6.0 2:30.0 3:1.0 4:5.0 6:9.0 7:6.0 8:6.24999996875 9:10.0 10:15.0 11:7.0 12:5.0 13:10.0 14:6.10391304082 15:1.0 
0.5016972421221929 1:7.3 2:30.0 6:8.0 7:6.0 8:5.07499998731 9:10.0 10:15.0 11:8.0 13:7.5 14:5.79903225619 15:1.0 
-1.0 1:7.2 2:45.0 4:7.5 6:5.0 7:4.0 8:6.81666665531 9:5.0 11:4.0 14:7.01538460999 15:1.0 
-1.0 2:30.0 4:5.0 6:7.666666667 7:1.0 10:30.0 11:1.0 12:0.833333333 13:10.0 16:1.0 
-1.0 1:7.35 2:30.0 3:1.0 6:7.0 7:4.0 8:7.33999998532 9:10.0 10:15.0 11:6.0 14:6.29699999685 15:1.0 
1.0 2:30.0 4:1.666666668 6:6.333333333 7:3.0 8:6.83999998632 9:10.0 10:15.0 11:3.0 12:5.0 13:4.166666668 14:7.27499999091 15:1.0 16:1.0 
-1.0 1:6.1 2:30.0 4:2.5 6:7.0 7:5.0 8:8.36666665272 9:10.0 11:5.0 12:2.5 13:10.0 14:7.29999999652 15:1.0 
1.0 2:45.0 4:5.0 6:8.0 7:3.0 8:5.199999974 9:0.833333333 10:15.0 11:4.0 13:10.0 14:6.40714284799 16:1.0 
-1.0 2:45.0 3:3.0 4:4.166666668 6:7.0 7:3.0 8:7.23999998552 9:5.833333333 11:4.0 12:2.5 13:5.0 14:7.35999999509 15:1.0 16:1.0 
-0.882303628765524 1:6.7 2:45.0 3:3.0 4:4.166666668 6:7.0 7:3.0 8:8.3999999832 9:5.833333333 11:4.0 12:2.5 13:5.0 14:7.58235293672 15:1.0 16:1.0 
1.0 2:30.0 4:1.666666668 6:7.333333333 7:1.0 10:30.0 11:1.0 12:0.833333333 13:10.0 16:1.0 
-1.0 1:5.1 2:30.0 4:2.5 6:7.0 7:5.0 8:6.63999999336 9:10.0 11:9.0 12:2.5 13:10.0 14:5.73235293949 15:1.0 
-1.0 1:5.3 2:32.0 4:1.666666668 6:8.0 7:1.0 8:7.08333332153 10:10.0 11:4.0 12:0.833333333 13:7.5 14:6.91249999568 16:1.0 
1.0 1:8.0 2:45.0 6:6.0 7:6.0 8:6.23333332294 11:5.0 13:7.5 14:6.08999999642 15:1.0 16:1.0 
-1.0 1:7.7 2:45.0 4:8.333333333 6:6.666666667 7:3.0 8:5.52499998619 9:10.0 11:6.0 12:3.333333333 13:4.166666668 14:6.03999999698 15:1.0 
-1.0 1:7.6 2:15.0 4:5.0 6:5.0 7:6.0 8:5.72499998569 9:10.0 10:30.0 11:10.0 12:5.0 13:5.0 14:6.12470588055 15:1.0 
1.0 1:7.9 2:45.0 4:2.5 6:7.0 7:6.0 8:9.03333331828 9:10.0 11:7.0 12:2.5 13:5.0 14:8.78666666081 15:1.0 
-1.0 1:7.1 2:30.0 4:4.166666668 6:8.666666667 7:3.0 8:5.399999982 9:0.833333333 10:15.0 11:3.0 12:5.0 13:10.0 14:6.72142856183 15:1.0 16:1.0 
1.0 1:6.1 2:20.0 4:7.5 6:5.666666667 8:5.999999985 10:50.0 11:2.0 12:10.0 14:5.999999985 16:1.0 
-0.5387199731796425 1:7.0 2:20.0 4:7.5 6:5.666666667 8:6.77499998306 10:50.0 11:2.0 12:10.0 14:6.77499998306 16:1.0 
-1.0 1:6.3 2:45.0 4:7.5 6:5.0 7:4.0 8:7.34999996325 9:5.0 11:9.0 14:6.10909090724 15:1.0 
0.755323286192663 1:8.35 2:30.0 4:2.5 5:1.0 6:7.0 7:5.0 8:8.07499997981 9:10.0 11:5.0 12:2.5 13:10.0 14:7.38411764272 15:1.0 
-1.0 1:7.2 2:30.0 4:6.666666668 6:6.333333333 7:3.0 8:7.30999999269 9:5.0 10:15.0 11:2017.0 12:5.0 13:5.833333333 14:7.2049999964 15:1.0 16:1.0 
-1.0 1:6.9 2:30.0 4:3.333333333 6:7.0 7:3.0 8:5.7999999884 9:10.0 10:15.0 11:5.0 12:5.833333333 13:8.333333333 14:5.75454544931 15:1.0 16:1.0 
-1.0 2:30.0 4:1.666666668 6:8.333333333 7:1.0 8:6.91666664361 10:30.0 11:2.0 12:0.833333333 13:10.0 14:6.91666664361 15:1.0 16:1.0 
1.0 1:8.5 2:35.0 4:5.0 5:1.0 6:6.0 8:8.19999998829 10:7.0 11:7.0 14:8.0791666633 
1.0 1:6.2 2:20.0 4:10.0 6:6.0 8:6.89999998275 10:8.0 11:4.0 14:6.85714285224 
1.0 1:6.8 2:36.0 4:2.5 6:7.0 7:6.0 8:7.16666664278 9:7.5 10:9.0 11:7.0 12:2.5 13:5.0 14:6.08799999756 15:1.0 16:1.0 
-1.0 1:7.7 2:45.0 3:3.0 4:4.166666668 6:7.0 7:3.0 8:7.199999964 9:5.833333333 11:4.0 12:2.5 13:5.0 14:6.04999999395 15:1.0 16:1.0 
1.0 2:30.0 3:1.0 4:1.666666668 6:6.6 7:4.0 8:8.21999998356 9:10.0 10:15.0 11:3.0 12:4.166666668 13:3.333333333 14:8.47499998941 15:1.0 16:1.0 
-1.0 1:6.6 2:30.0 4:4.166666668 5:1.0 6:8.666666667 7:3.0 8:6.45999998708 9:0.833333333 10:15.0 11:3.0 12:5.0 13:10.0 14:6.67499999166 15:1.0 16:1.0 
-1.0 1:5.6 2:45.0 4:7.5 6:7.0 7:6.0 8:5.93333331356 9:10.0 11:7.0 12:5.0 13:7.5 14:5.61519999775 15:1.0 
-1.0 1:8.1 2:45.0 6:8.0 7:6.0 8:7.99999998857 9:10.0 11:7.0 13:5.0 14:7.64848484617 15:1.0 
-1.0 1:5.2 2:30.0 6:8.0 7:6.0 8:6.25999998748 9:10.0 10:15.0 11:7.0 13:7.5 14:6.13740740513 15:1.0 
1.0 2:30.0 3:1.0 4:1.666666668 6:6.6 7:4.0 8:5.49999998167 9:10.0 10:15.0 11:3.0 12:4.166666668 13:3.333333333 14:5.92142856297 15:1.0 16:1.0 
1.0 1:6.55 2:30.0 3:1.0 6:7.0 7:4.0 8:7.12499998219 9:10.0 10:15.0 11:8.0 14:6.16896551511 15:1.0 
-1.0 1:6.5 2:30.0 3:3.0 4:10.0 6:8.0 7:6.0 8:6.17999998764 9:7.5 10:15.0 11:7.0 12:5.0 13:6.25 14:6.34333333098 15:1.0 16:1.0 
-0.3538509069953139 1:5.0 2:32.0 4:1.666666668 6:8.0 7:1.0 8:6.33333331222 10:10.0 11:3.0 12:0.833333333 13:7.5 14:6.21428570541 16:1.0 
-1.0 1:7.3 2:35.0 4:5.0 6:6.0 8:6.37999998724 10:7.0 11:6.0 14:5.89523809243 
1.0 1:8.7 2:45.0 4:7.5 6:5.0 7:6.0 8:7.77499998056 9:5.0 11:7.0 12:2.5 13:5.0 14:8.05937499748 15:1.0 16:1.0 
-0.9825026420471938 1:9.6 2:30.0 4:6.666666668 6:6.333333333 7:3.0 8:6.69999999256 9:5.0 10:15.0 11:2017.0 12:5.0 13:5.833333333 14:6.493333329 15:1.0 16:1.0 
1.0 1:5.5 2:45.0 4:10.0 6:8.0 7:6.0 8:7.02222221442 9:10.0 11:7.0 12:5.0 13:8.75 14:6.58064515917 15:1.0 
-1.0 1:4.4 2:32.0 4:1.666666668 6:8.0 7:1.0 8:6.78333332203 10:10.0 11:3.0 12:0.833333333 13:7.5 14:6.86666665904 16:1.0 
-1.0 2:45.0 4:5.0 6:2.0 7:6.0 8:6.24999998438 9:5.0 11:3.0 12:2.5 13:5.0 14:6.94999998842 16:1.0 
-1.0 1:8.8 2:45.0 4:10.0 6:7.0 7:6.0 8:6.23333331256 9:7.5 11:6.0 12:7.5 13:2.5 14:5.65294117315 15:1.0 
1.0 1:8.7 2:20.0 3:1.0 4:1.666666668 6:6.333333333 9:10.0 10:23.0 11:1.0 12:2.5 13:8.333333333 16:1.0 
-1.0 1:1.7 2:39.0 4:7.5 6:5.0 7:6.0 8:4.67999999064 9:7.5 10:6.0 11:7.0 12:5.0 13:2.5 14:6.14285714066 15:1.0 16:1.0 
1.0 1:9.3 2:30.0 4:2.5 6:7.0 7:5.0 8:6.81666665531 9:10.0 11:5.0 12:2.5 13:10.0 14:7.39473683821 15:1.0 
-1.0 2:16.0 4:7.5 6:5.0 10:40.0 11:1.0 12:10.0 16:1.0 
1.0 2:16.0 4:7.5 6:5.0 10:40.0 11:1.0 12:10.0 16:1.0 
1.0 2:30.0 4:1.666666668 6:7.333333333 7:1.0 8:6.91999998616 10:30.0 11:6.0 12:0.833333333 13:10.0 14:6.71699999664 16:1.0 
-1.0 2:16.0 4:7.5 6:5.0 10:40.0 11:1.0 12:10.0 16:1.0 
1.0 1:5.5 2:30.0 4:2.5 6:8.0 7:5.0 8:6.09999999237 9:2.5 11:7.0 12:2.5 13:10.0 14:6.03333333046 15:1.0 16:1.0 
-1.0 2:30.0 3:1.0 4:1.666666668 6:6.6 7:4.0 8:7.77999998444 9:10.0 10:15.0 11:3.0 12:4.166666668 13:3.333333333 14:8.07499998991 15:1.0 16:1.0 
0.800841493527219 2:45.0 3:2.0 4:7.5 6:8.0 7:6.0 8:9.03333331828 9:7.5 11:7.0 12:2.5 13:10.0 14:8.78666666081 15:1.0 16:1.0 
1.0 2:30.0 4:3.333333333 6:7.0 7:3.0 8:3.99999996 9:10.0 10:15.0 11:6.0 12:5.833333333 13:8.333333333 14:6.45499999597 15:1.0 16:1.0 
1.0 1:7.15 2:30.0 3:1.0 6:7.0 7:4.0 8:5.98571427716 9:10.0 10:15.0 11:6.0 14:6.11904761613 15:1.0 
-1.0 1:8.7 2:30.0 6:3.0 7:4.0 8:8.21666665297 9:10.0 10:15.0 11:6.0 14:8.10434782256 15:1.0 
-1.0 2:16.0 4:7.5 6:5.0 10:40.0 11:1.0 12:10.0 16:1.0 
1.0 1:6.8 2:45.0 4:2.5 6:9.0 7:5.0 8:5.56666664811 9:5.0 10:15.0 11:6.0 12:2.5 13:10.0 14:5.92588234946 15:1.0 16:1.0 
1.0 2:30.0 4:6.666666668 6:6.333333333 7:3.0 8:6.41666665597 9:5.0 10:15.0 11:5.0 12:5.0 13:5.833333333 14:7.00526315421 15:1.0 16:1.0 
1.0 1:8.6 2:30.0 4:1.666666668 6:8.333333333 7:1.0 8:6.6999999665 10:30.0 11:3.0 12:0.833333333 13:10.0 14:6.34999998413 15:1.0 16:1.0 
1.0 1:8.2 2:30.0 4:2.5 6:7.0 7:5.0 9:10.0 11:5.0 12:2.5 13:10.0 14:6.47999999568 15:1.0 
1.0 1:7.9 2:30.0 4:1.666666668 6:8.333333333 7:1.0 8:8.21999998356 10:30.0 11:3.0 12:0.833333333 13:10.0 14:8.47499998941 15:1.0 16:1.0 
1.0 2:30.0 3:1.0 4:1.666666668 5:1.0 6:6.6 7:4.0 8:5.56666664811 9:10.0 10:15.0 11:3.0 12:4.166666668 13:3.333333333 14:6.19999999114 15:1.0 16:1.0 
-1.0 2:30.0 3:1.0 4:1.666666668 5:1.0 6:6.6 7:4.0 8:6.36666664544 9:10.0 10:15.0 11:3.0 12:4.166666668 13:3.333333333 14:6.6285714191 15:1.0 16:1.0 
-1.0 2:10.0 3:3.0 4:1.666666668 6:4.666666667 9:6.666666668 10:20.0 11:1.0 12:2.5 13:6.666666668 16:1.0 
-1.0 1:7.1 2:30.0 4:4.166666668 6:8.666666667 7:3.0 8:6.74999998312 9:0.833333333 10:15.0 11:3.0 12:5.0 13:10.0 14:6.98749999127 15:1.0 16:1.0 
1.0 1:8.3 2:20.0 3:1.0 4:1.666666668 6:6.333333333 9:10.0 10:23.0 11:1.0 12:2.5 13:8.333333333 16:1.0 
-1.0 2:30.0 4:5.0 6:7.666666667 7:1.0 8:7.36666664211 10:30.0 11:2.0 12:0.833333333 13:10.0 14:7.36666664211 16:1.0 
-1.0 2:16.0 4:7.5 6:5.0 10:40.0 11:1.0 12:10.0 16:1.0 
1.0 2:21.0 4:9.166666668 6:6.333333333 8:7.11499998221 10:5.0 11:4.0 14:6.7872727211 
1.0 1:4.8 2:30.0 4:4.166666668 5:1.0 6:8.666666667 7:3.0 8:7.61666665397 9:0.833333333 10:15.0 11:5.0 12:5.0 13:10.0 14:7.00869564913 15:1.0 16:1.0 
1.0 2:45.0 3:3.0 4:4.166666668 6:7.0 7:3.0 8:7.13333332144 9:5.833333333 11:4.0 12:2.5 13:5.0 14:7.11874999555 15:1.0 16:1.0 
-1.0 2:15.0 4:5.0 6:5.0 7:6.0 8:5.04999999369 9:10.0 10:30.0 11:9.0 12:5.0 13:5.0 14:5.62285714125 15:1.0 
-1.0 2:30.0 4:3.333333333 6:7.0 7:3.0 8:5.64399998871 9:10.0 10:15.0 11:4.0 12:5.833333333 13:8.333333333 14:6.48714285251 15:1.0 16:1.0 
-1.0 1:9.5 2:30.0 4:3.333333333 6:7.0 7:3.0 8:8.47499995763 9:10.0 10:15.0 11:3.0 12:5.833333333 13:8.333333333 14:7.89999998871 15:1.0 16:1.0 
1.0 2:30.0 3:1.0 4:1.666666668 6:6.6 7:4.0 8:4.799999984 9:10.0 10:15.0 11:3.0 12:4.166666668 13:3.333333333 14:5.21428570684 15:1.0 16:1.0 
-1.0 2:45.0 3:3.0 4:4.166666668 6:7.0 7:3.0 8:6.28333332286 9:5.833333333 11:5.0 12:2.5 13:5.0 14:6.20599999586 15:1.0 16:1.0 
1.0 2:35.0 4:5.0 5:1.0 6:6.0 8:8.23333331961 10:7.0 11:7.0 14:7.46086956197 
1.0 2:32.0 4:5.0 6:6.966666667 7:1.0 8:7.95999998408 10:10.0 11:4.0 12:0.833333333 13:7.5 14:7.67999999488 16:1.0 
-0.34867428756884483 1:7.1 2:35.0 4:5.0 5:1.0 6:6.0 10:7.0 11:4.0 14:6.499999987 
-1.0 2:45.0 3:3.0 4:4.166666668 6:7.0 7:3.0 8:6.21666665631 9:5.833333333 11:5.0 12:2.5 13:5.0 14:6.34999999626 15:1.0 16:1.0 
1.0 2:32.0 4:5.0 6:6.966666667 7:1.0 8:6.03333331322 10:10.0 11:5.0 12:0.833333333 13:7.5 14:6.54999999454 16:1.0 
0.05516763190574848 1:7.1 2:30.0 4:2.5 6:8.0 7:5.0 8:6.98333332169 9:2.5 11:5.0 12:2.5 13:10.0 14:7.39473683821 15:1.0 16:1.0 
1.0 2:45.0 4:5.0 6:2.0 7:6.0 8:7.71999998456 9:5.0 11:7.0 12:2.5 13:5.0 14:7.73437499758 16:1.0 
-1.0 2:45.0 4:5.0 6:2.0 7:6.0 8:6.95999998608 9:5.0 11:7.0 12:2.5 13:5.0 14:6.18799999752 16:1.0 
-1.0 1:5.2 2:30.0 4:3.333333333 6:7.0 7:3.0 8:6.45999998708 9:10.0 10:15.0 11:6.0 12:5.833333333 13:8.333333333 14:6.23333333074 15:1.0 16:1.0 
1.0 2:30.0 4:5.0 6:7.666666667 7:1.0 10:30.0 11:1.0 12:0.833333333 13:10.0 16:1.0 
-1.0 1:4.2 2:45.0 4:8.333333333 6:6.666666667 7:3.0 8:7.44999996275 9:10.0 11:4.0 12:3.333333333 13:4.166666668 14:6.51818181226 15:1.0 
1.0 2:45.0 4:5.0 6:8.0 7:3.0 8:7.03333330989 9:0.833333333 10:15.0 11:4.0 13:10.0 14:5.78749999277 16:1.0 
-1.0 2:10.0 3:3.0 4:1.666666668 6:4.666666667 9:6.666666668 10:20.0 11:1.0 12:2.5 13:6.666666668 16:1.0 
1.0 1:4.4 2:45.0 4:6.666666668 6:7.333333333 7:3.0 8:6.9999999825 9:6.666666668 11:3.0 12:4.166666668 13:8.333333333 14:6.44285713365 15:1.0 16:1.0 
1.0 1:5.5 2:35.0 4:5.0 6:6.0 8:6.45999998708 10:7.0 11:5.0 14:6.45263157555 
-1.0 1:7.5 2:30.0 5:1.0 6:8.0 7:6.0 8:7.49999998125 9:10.0 10:15.0 11:7.0 13:7.5 14:6.81285714042 15:1.0 
1.0 2:30.0 4:5.0 6:7.666666667 7:1.0 8:6.04999996975 10:30.0 11:4.0 12:0.833333333 13:10.0 14:6.31666665614 16:1.0 
-1.0 1:8.65 2:30.0 3:1.0 6:7.0 7:4.0 8:7.98333332003 9:10.0 10:15.0 11:6.0 14:7.8366666634 15:1.0 
-1.0 2:32.0 4:5.0 6:6.966666667 7:1.0 8:6.12499998469 10:10.0 11:2.0 12:0.833333333 13:7.5 14:6.12499998469 16:1.0 
-1.0 2:45.0 3:3.0 4:4.166666668 6:7.0 7:3.0 8:6.98333332169 9:5.833333333 11:6.0 12:2.5 13:5.0 14:6.38045454255 15:1.0 16:1.0 
1.0 1:7.0 2:15.0 4:5.0 6:5.0 7:6.0 8:5.91999998816 9:10.0 10:30.0 11:6.0 12:5.0 13:5.0 14:6.04399999698 15:1.0 
-1.0 2:30.0 4:5.0 6:7.666666667 7:1.0 10:30.0 11:1.0 12:0.833333333 13:10.0 16:1.0 
-1.0 1:4.75 2:30.0 3:1.0 5:1.0 6:7.0 7:4.0 9:10.0 10:15.0 11:6.0 14:7.79411764247 15:1.0 
1.0 2:30.0 4:1.666666668 6:8.333333333 7:1.0 8:7.3499999755 10:30.0 11:2.0 12:0.833333333 13:10.0 14:7.3499999755 15:1.0 16:1.0 
1.0 2:45.0 3:3.0 4:4.166666668 6:7.0 7:3.0 8:7.54999996225 9:5.833333333 11:4.0 12:2.5 13:5.0 14:6.69999999256 15:1.0 16:1.0 
-1.0 1:7.5 2:32.0 4:1.666666668 6:8.0 7:1.0 8:6.86666664378 10:10.0 11:4.0 12:0.833333333 13:7.5 14:6.57142856204 16:1.0 
1.0 2:45.0 4:5.0 5:1.0 6:8.0 7:3.0 8:7.8999999842 9:0.833333333 10:15.0 11:4.0 13:10.0 14:7.93076922467 16:1.0 
-1.0 1:8.3 2:15.0 4:5.0 5:1.0 6:5.0 7:6.0 8:8.01666665331 9:10.0 10:30.0 11:6.0 12:5.0 13:5.0 14:7.62173912712 15:1.0 
1.0 2:32.0 4:5.0 6:6.966666667 7:1.0 10:10.0 11:1.0 12:0.833333333 13:7.5 16:1.0 
1.0 2:30.0 4:4.166666668 5:1.0 6:8.666666667 7:3.0 8:6.91666665514 9:0.833333333 10:15.0 11:5.0 12:5.0 13:10.0 14:6.3583333298 15:1.0 16:1.0 
1.0 1:6.1 2:45.0 4:2.5 6:9.0 7:5.0 8:6.25999998748 9:5.0 10:15.0 11:5.0 12:2.5 13:10.0 14:6.0749999962 15:1.0 16:1.0 
1.0 1:6.7 2:20.0 4:7.5 6:5.666666667 8:7.45999998508 10:50.0 11:2.0 12:10.0 14:7.45999998508 16:1.0 
1.0 1:7.0 2:20.0 4:10.0 6:6.0 8:5.999999985 10:8.0 11:7.0 14:5.98518518297 
-1.0 2:21.0 4:9.166666668 5:1.0 6:6.333333333 8:7.52499998119 10:5.0 11:2.0 14:7.52499998119 
1.0 2:30.0 3:1.0 4:1.666666668 6:6.6 7:4.0 8:7.56666664144 9:10.0 10:15.0 11:2.0 12:4.166666668 13:3.333333333 14:7.56666664144 15:1.0 16:1.0 
1.0 2:30.0 4:1.666666668 6:8.333333333 7:1.0 8:7.48333330839 10:30.0 11:2.0 12:0.833333333 13:10.0 14:7.48333330839 15:1.0 16:1.0 
-1.0 1:5.2 2:36.0 3:1.0 4:2.5 6:7.0 7:6.0 8:6.04999998992 9:12.5 10:9.0 11:8.0 12:5.0 13:7.5 14:6.60166666447 15:1.0 
1.0 2:21.0 4:9.166666668 6:6.333333333 8:6.94999997683 10:5.0 11:2.0 14:6.94999997683 
-1.0 1:4.8 2:45.0 4:5.0 6:6.0 7:6.0 8:6.78333332203 9:10.0 11:7.0 12:7.5 13:5.0 14:6.21538461299 15:1.0 
-1.0 2:30.0 4:1.666666668 6:6.333333333 7:3.0 8:6.42999998392 9:10.0 10:15.0 11:4.0 12:5.0 13:4.166666668 14:6.51545453953 15:1.0 16:1.0 
1.0 1:6.9 2:20.0 4:7.5 6:6.666666667 8:6.47142856218 10:50.0 11:7.0 12:10.0 14:6.61666666446 16:1.0 
0.20364907784218664 1:8.7 2:45.0 4:5.0 5:1.0 6:6.0 7:6.0 8:7.01666665497 9:10.0 11:6.0 12:7.5 13:5.0 14:7.2882608664 15:1.0 
1.0 1:5.8 2:32.0 4:1.666666668 6:8.0 7:1.0 8:7.41999998516 10:10.0 11:4.0 12:0.833333333 13:7.5 14:6.61999999338 16:1.0 
1.0 2:10.0 3:3.0 4:1.666666668 5:1.0 6:4.666666667 9:6.666666668 10:20.0 11:1.0 12:2.5 13:6.666666668 16:1.0 
-1.0 1:5.6 2:20.0 3:1.0 4:1.666666668 6:6.333333333 9:10.0 10:23.0 11:1.0 12:2.5 13:8.333333333 16:1.0 
1.0 1:7.4 2:32.0 4:1.666666668 6:8.0 7:1.0 8:7.27999998544 10:10.0 11:4.0 12:0.833333333 13:7.5 14:7.18461537909 16:1.0 
-1.0 1:7.3 2:30.0 4:1.666666668 6:8.333333333 7:1.0 8:6.68749998328 10:30.0 11:2.0 12:0.833333333 13:10.0 14:6.68749998328 15:1.0 16:1.0 
-1.0 2:30.0 3:1.0 4:1.666666668 6:6.6 7:4.0 8:7.44999996275 9:10.0 10:15.0 11:2.0 12:4.166666668 13:3.333333333 14:7.44999996275 15:1.0 16:1.0 
-1.0 2:32.0 4:1.666666668 6:8.0 7:1.0 8:5.77499998556 10:10.0 11:3.0 12:0.833333333 13:7.5 14:6.17142856261 16:1.0 
1.0 1:5.2 2:30.0 6:8.0 7:6.0 8:7.35999998528 9:10.0 10:15.0 11:7.0 13:7.5 14:7.19285714029 15:1.0 
-1.0 1:8.2 2:45.0 4:7.5 6:7.0 7:6.0 8:8.07999998384 9:10.0 11:7.0 12:5.0 13:7.5 14:7.90714285432 15:1.0 
1.0 2:10.0 3:3.0 4:1.666666668 6:4.666666667 9:6.666666668 10:20.0 11:1.0 12:2.5 13:6.666666668 16:1.0 
-1.0 1:9.1 2:45.0 4:6.666666668 6:7.333333333 7:3.0 8:5.099999983 9:6.666666668 11:7.0 12:4.166666668 13:8.333333333 14:5.8333333309 15:1.0 16:1.0 
1.0 1:7.5 2:45.0 4:2.5 6:9.0 7:5.0 8:7.25999998548 9:5.0 10:15.0 11:6.0 12:2.5 13:10.0 14:7.02799999719 15:1.0 16:1.0 
-1.0 1:8.4 2:36.0 4:2.5 6:7.0 7:6.0 8:6.1999999845 9:7.5 10:9.0 11:7.0 12:2.5 13:5.0 14:6.58275861842 15:1.0 16:1.0 
-1.0 1:6.7 2:45.0 4:7.5 6:7.0 7:6.0 8:6.50999999349 9:10.0 11:7.0 12:5.0 13:7.5 14:6.22399999751 15:1.0 
-1.0 1:7.6 2:15.0 4:5.0 6:5.0 7:6.0 8:8.34999998608 9:10.0 10:30.0 11:7.0 12:5.0 13:5.0 14:7.4454545432 15:1.0 
-1.0 1:9.5 2:30.0 4:2.5 6:8.0 7:5.0 8:7.32499999084 9:2.5 11:7.0 12:2.5 13:10.0 14:7.44444444169 15:1.0 16:1.0 
-1.0 1:7.4 2:30.0 3:2.0 6:4.0 7:6.0 8:5.78333332369 9:10.0 10:15.0 11:6.0 14:6.60344827359 15:1.0 
1.0 1:5.1 2:30.0 3:1.0 6:7.0 7:4.0 8:4.74999999208 9:10.0 10:15.0 11:8.0 14:5.39354838536 15:1.0 
-1.0 1:5.4 2:45.0 4:2.5 6:9.0 7:5.0 8:6.52499998369 9:5.0 10:15.0 11:6.0 12:2.5 13:10.0 14:7.02380952046 15:1.0 16:1.0 
-1.0 1:6.6 2:32.0 4:1.666666668 6:8.0 7:1.0 8:7.76666665372 10:10.0 11:4.0 12:0.833333333 13:7.5 14:7.91764705417 16:1.0 
-1.0 1:6.7 2:30.0 4:2.5 6:7.0 7:5.0 8:7.199999988 9:10.0 11:5.0 12:2.5 13:10.0 14:6.32352940804 15:1.0 
-1.0 1:6.5 2:15.0 4:5.0 6:5.0 7:6.0 8:6.46666665589 9:10.0 10:30.0 11:6.0 12:5.0 13:5.0 14:6.83956521442 15:1.0 
-1.0 2:45.0 4:8.333333333 6:6.666666667 7:3.0 8:5.93333332344 9:10.0 11:5.0 12:3.333333333 13:4.166666668 14:5.82999999636 15:1.0 
-1.0 1:6.4 2:30.0 4:4.166666668 6:8.666666667 7:3.0 8:6.78333332203 9:0.833333333 10:15.0 11:3.0 12:5.0 13:10.0 14:6.86666665904 15:1.0 16:1.0 
-1.0 1:5.3 2:45.0 4:10.0 6:7.0 7:6.0 8:6.66666665556 9:7.5 11:6.0 12:7.5 13:2.5 14:6.2404347799 15:1.0 
-0.7818915287677436 1:4.3 2:15.0 4:5.0 6:5.0 7:6.0 8:5.84999999025 9:10.0 10:30.0 11:6.0 12:5.0 13:5.0 14:6.40454545163 15:1.0 
1.0 1:6.2 2:45.0 4:8.333333333 6:6.666666667 7:3.0 8:5.64999999058 9:10.0 11:4.0 12:3.333333333 13:4.166666668 14:6.18666666254 15:1.0 
-1.0 2:30.0 4:6.666666668 6:6.333333333 7:3.0 8:7.31999998536 9:5.0 10:15.0 11:4.0 12:5.0 13:5.833333333 14:7.42666666172 15:1.0 16:1.0 
-1.0 1:8.2 2:45.0 4:6.666666668 6:7.333333333 7:3.0 8:5.56666665739 9:6.666666668 11:3.0 12:4.166666668 13:8.333333333 14:5.88749999264 15:1.0 16:1.0 
-1.0 2:30.0 4:5.0 6:7.666666667 7:1.0 8:8.46666663844 10:30.0 11:2.0 12:0.833333333 13:10.0 14:8.46666663844 16:1.0 
-1.0 2:45.0 4:5.0 6:8.0 7:3.0 8:7.13999998572 9:0.833333333 10:15.0 11:4.0 13:10.0 14:7.76153845557 16:1.0 
1.0 1:5.2 2:15.0 4:5.0 5:1.0 6:5.0 7:6.0 9:10.0 10:30.0 11:12.0 12:5.0 13:5.0 14:6.75366666442 15:1.0 
-1.0 1:10.0 2:45.0 4:8.333333333 6:6.666666667 7:3.0 8:6.04999996975 9:10.0 11:4.0 12:3.333333333 13:4.166666668 14:6.31666665614 15:1.0 
1.0 1:8.5 2:30.0 6:3.0 7:4.0 8:7.38333332103 9:10.0 10:15.0 11:6.0 14:7.43928571163 15:1.0 
1.0 1:9.2 2:45.0 4:6.666666668 5:1.0 6:7.333333333 7:3.0 8:6.61499998346 9:6.666666668 11:4.0 12:4.166666668 13:8.333333333 14:6.35090908514 15:1.0 16:1.0 
-1.0 2:30.0 4:1.666666668 6:6.333333333 7:3.0 8:5.41499998646 9:10.0 10:15.0 11:4.0 12:5.0 13:4.166666668 14:5.56909090403 15:1.0 16:1.0 
1.0 1:7.2 2:30.0 6:3.0 7:4.0 8:6.97142856147 9:10.0 10:15.0 11:6.0 14:6.45347825806 15:1.0 
1.0 1:8.0 2:45.0 4:10.0 6:8.0 7:6.0 8:6.8999999885 9:10.0 11:7.0 12:5.0 13:8.75 14:7.21999999759 15:1.0 
1.0 1:5.1 2:39.0 4:7.5 6:5.0 7:6.0 8:7.02222221442 9:7.5 10:6.0 11:7.0 12:5.0 13:2.5 14:6.58064515917 15:1.0 16:1.0 
-1.0 2:32.0 4:5.0 6:6.966666667 7:1.0 8:6.86666665522 10:10.0 11:2.0 12:0.833333333 13:7.5 14:6.86666665522 16:1.0 
-1.0 2:30.0 4:6.666666668 6:6.333333333 7:3.0 8:6.48333332253 9:5.0 10:15.0 11:5.0 12:5.0 13:5.833333333 14:7.07777777385 15:1.0 16:1.0 
1.0 1:6.2 2:20.0 4:10.0 6:6.0 8:7.1999999856 10:8.0 11:6.0 14:6.86476190149 
1.0 1:9.2 2:30.0 4:3.333333333 6:7.0 7:3.0 8:5.71999998856 9:10.0 10:15.0 11:6.0 12:5.833333333 13:8.333333333 14:6.1499999972 15:1.0 16:1.0 
1.0 1:5.2 2:45.0 4:2.5 6:9.0 7:5.0 8:6.41666665597 9:5.0 10:15.0 11:5.0 12:2.5 13:10.0 14:7.06315789102 15:1.0 16:1.0 
-1.0 1:6.7 2:30.0 5:1.0 6:8.0 7:6.0 8:7.29999998175 9:10.0 10:15.0 11:7.0 13:7.5 14:6.96666666409 15:1.0 
-1.0 1:8.3 2:20.0 4:7.5 6:5.666666667 8:7.26666664244 10:50.0 11:2.0 12:10.0 14:7.26666664244 16:1.0 
1.0 2:30.0 4:6.666666668 6:6.333333333 7:3.0 8:7.99999998667 9:5.0 10:15.0 11:4.0 12:5.0 13:5.833333333 14:7.65624999521 15:1.0 16:1.0 
1.0 2:30.0 4:1.666666668 6:7.333333333 7:1.0 10:30.0 11:7.0 12:0.833333333 13:10.0 14:7.0999999645 16:1.0 
-1.0 1:5.2 2:30.0 4:1.666666668 6:8.333333333 7:1.0 8:7.03333332552 10:30.0 11:7.0 12:0.833333333 13:10.0 14:6.82258064296 15:1.0 16:1.0 
1.0 1:7.6 2:45.0 4:6.666666668 6:7.333333333 7:3.0 8:6.88333332186 9:6.666666668 11:3.0 12:4.166666668 13:8.333333333 14:7.08888888101 15:1.0 16:1.0 
1.0 1:6.0 2:45.0 4:4.0 6:8.0 7:6.0 8:5.6428571348 9:9.0 11:8.0 12:8.0 13:9.0 14:5.801935482 15:1.0 
-1.0 2:32.0 4:1.666666668 6:8.0 7:1.0 8:6.19999997933 10:10.0 11:3.0 12:0.833333333 13:7.5 14:6.53571427638 16:1.0 
-1.0 1:9.4 2:45.0 6:6.0 7:6.0 8:7.71666665381 11:5.0 13:7.5 14:7.18411764283 15:1.0 16:1.0 
1.0 1:5.0 2:45.0 4:10.0 6:7.0 7:6.0 8:5.7999999884 9:7.5 11:6.0 12:7.5 13:2.5 14:5.86363636097 15:1.0 
1.0 1:5.0 2:45.0 4:7.5 6:7.0 7:6.0 8:5.71999998856 9:10.0 11:7.0 12:5.0 13:7.5 14:5.53928571231 15:1.0 
-1.0 2:30.0 4:5.0 6:7.666666667 7:1.0 8:7.13999998572 10:30.0 11:2.0 12:0.833333333 13:10.0 14:7.13999998572 16:1.0 
-1.0 1:7.5 2:30.0 4:1.666666668 6:8.333333333 7:1.0 8:8.23333330589 10:30.0 11:2.0 12:0.833333333 13:10.0 14:8.23333330589 15:1.0 16:1.0 
1.0 2:30.0 4:1.666666668 6:7.333333333 7:1.0 10:30.0 11:1.0 12:0.833333333 13:10.0 16:1.0 
1.0 1:5.7 2:20.0 4:7.5 6:6.666666667 8:4.86666665044 10:50.0 11:3.0 12:10.0 14:5.52142856354 16:1.0 
-1.0 2:45.0 4:8.333333333 6:6.666666667 7:3.0 8:7.12499998219 9:10.0 11:4.0 12:3.333333333 13:4.166666668 14:6.79999999433 15:1.0 
1.0 2:10.0 3:3.0 4:1.666666668 6:4.666666667 9:6.666666668 10:20.0 11:1.0 12:2.5 13:6.666666668 16:1.0 
1.0 2:32.0 4:5.0 6:6.966666667 7:1.0 8:6.66666665556 10:10.0 11:6.0 12:0.833333333 13:7.5 14:5.82095237818 16:1.0 
1.0 1:6.1 2:45.0 3:2.0 4:7.5 6:8.0 7:6.0 8:6.85999998628 9:7.5 11:7.0 12:2.5 13:10.0 14:6.62999999779 15:1.0 16:1.0 
-1.0 1:7.0 2:30.0 3:1.0 4:5.0 5:1.0 6:9.0 7:6.0 8:6.42499998394 9:10.0 10:15.0 11:7.0 12:5.0 13:10.0 14:6.56499999747 15:1.0 
1.0 1:9.4 2:45.0 4:10.0 6:4.0 7:6.0 8:5.94999999008 9:5.0 11:8.0 12:5.0 13:5.0 14:6.44764705693 15:1.0 
1.0 1:6.4 2:45.0 3:3.0 4:4.166666668 6:7.0 7:3.0 8:6.56666664478 9:5.833333333 11:4.0 12:2.5 13:5.0 14:6.68461537947 15:1.0 16:1.0 
1.0 2:45.0 4:5.0 6:8.0 7:3.0 8:6.86666664378 9:0.833333333 10:15.0 11:4.0 13:10.0 14:6.86428570938 16:1.0 
1.0 2:30.0 4:1.666666668 5:1.0 6:7.333333333 7:1.0 10:30.0 11:1.0 12:0.833333333 13:10.0 16:1.0 
-1.0 1:5.6 2:32.0 4:1.666666668 6:8.0 7:1.0 8:8.099999973 10:10.0 11:4.0 12:0.833333333 13:7.5 14:6.63846153336 16:1.0 
1.0 1:5.5 2:45.0 4:5.0 6:3.5 7:6.0 8:3.74999998125 9:10.0 11:10.0 12:2.5 13:7.5 14:5.94166666502 15:1.0 
-1.0 2:21.0 4:9.166666668 6:6.333333333 8:7.59999997467 10:5.0 11:2.0 14:7.59999997467 
-0.28139279857666927 1:8.3 2:45.0 4:5.0 5:1.0 6:9.0 7:6.0 8:8.56666663811 9:7.5 11:8.0 12:5.0 13:10.0 14:7.63030302799 15:1.0 16:1.0 
1.0 1:5.2 2:39.0 4:7.5 6:5.0 7:6.0 8:5.81666665697 9:7.5 10:6.0 11:6.0 12:5.0 13:2.5 14:6.62399999735 15:1.0 16:1.0 
-1.0 1:8.3 2:45.0 4:6.666666668 6:7.333333333 7:3.0 8:7.0999999645 9:6.666666668 11:3.0 12:4.166666668 13:8.333333333 14:7.85999998428 15:1.0 16:1.0 
1.0 2:45.0 4:5.0 6:2.0 7:6.0 8:5.62222221598 9:5.0 11:7.0 12:2.5 13:5.0 14:5.99687499813 16:1.0 
-1.0 1:7.3 2:45.0 6:6.0 7:6.0 8:6.09999999129 11:5.0 13:7.5 14:6.03222221887 15:1.0 16:1.0 
1.0 2:30.0 4:1.666666668 6:6.333333333 7:3.0 8:5.7999999855 9:8.333333333 10:15.0 11:5.0 13:0.833333333 14:6.0806249962 15:1.0 16:1.0 
-1.0 1:8.9 2:30.0 3:3.0 4:10.0 6:8.0 7:6.0 8:7.08333332153 9:7.5 10:15.0 11:7.0 12:5.0 13:6.25 14:6.83266666439 15:1.0 16:1.0 
1.0 1:7.2 2:30.0 4:4.166666668 6:8.666666667 7:3.0 8:7.87999998424 9:0.833333333 10:15.0 11:5.0 12:5.0 13:10.0 14:7.14090908766 15:1.0 16:1.0 
1.0 1:5.8 2:45.0 4:5.0 6:5.0 7:6.0 8:7.74999996125 9:7.5 11:8.0 12:2.5 13:7.5 14:5.9076666647 15:1.0 16:1.0 
-1.0 2:16.0 4:7.5 6:5.0 10:40.0 11:1.0 12:10.0 16:1.0 
-1.0 2:30.0 4:1.666666668 6:6.333333333 7:3.0 8:6.91999998616 9:8.333333333 10:15.0 11:5.0 13:0.833333333 14:7.4235294074 15:1.0 16:1.0 
-1.0 1:7.45 2:30.0 3:1.0 6:7.0 7:4.0 8:7.56666665406 9:10.0 10:15.0 11:2016.0 14:7.97777776891 15:1.0 
1.0 1:8.8 2:45.0 4:8.333333333 6:6.666666667 7:3.0 8:5.23333331589 9:10.0 11:4.0 12:3.333333333 13:4.166666668 14:6.86153845626 15:1.0 
1.0 1:7.4 2:15.0 4:5.0 6:5.0 7:6.0 8:4.94999999175 9:10.0 10:30.0 11:8.0 12:5.0 13:5.0 14:5.94838709486 15:1.0 
1.0 1:5.6 2:45.0 3:3.0 4:4.166666668 6:7.0 7:3.0 8:4.94999999175 9:5.833333333 11:8.0 12:2.5 13:5.0 14:5.94838709486 15:1.0 16:1.0 
1.0 1:8.6 2:20.0 3:1.0 4:1.666666668 6:6.333333333 8:5.23999998952 9:10.0 10:23.0 11:6.0 12:2.5 13:8.333333333 14:6.05909090634 16:1.0 
1.0 2:30.0 4:1.666666668 6:6.333333333 7:3.0 8:6.43999998712 9:8.333333333 10:15.0 11:5.0 13:0.833333333 14:6.705882349 15:1.0 16:1.0 
1.0 1:6.2 2:15.0 4:5.0 6:5.0 7:6.0 8:6.74999996625 9:10.0 10:30.0 11:6.0 12:5.0 13:5.0 14:6.37499999602 15:1.0 
1.0 1:6.1 2:30.0 3:3.0 4:10.0 6:8.0 7:6.0 8:5.27999998944 9:7.5 10:15.0 11:7.0 12:5.0 13:6.25 14:5.90199999764 15:1.0 16:1.0 
1.0 1:7.8 2:30.0 3:1.0 6:7.0 7:4.0 8:6.86666665522 9:10.0 10:15.0 11:7.0 14:6.38357142629 15:1.0 
1.0 1:9.3 2:45.0 6:6.0 7:6.0 8:7.45999998508 11:5.0 13:7.5 14:7.35294117215 15:1.0 16:1.0 
-1.0 2:30.0 3:1.0 4:1.666666668 6:6.6 7:4.0 8:6.44999998388 9:10.0 10:15.0 11:3.0 12:4.166666668 13:3.333333333 14:6.51428570498 15:1.0 16:1.0 
1.0 2:30.0 4:1.666666668 6:6.333333333 7:3.0 8:7.199999928 9:8.333333333 10:15.0 11:5.0 13:0.833333333 14:6.42499999465 15:1.0 16:1.0 
-1.0 1:4.2 2:30.0 6:8.0 7:6.0 8:7.66666664111 9:10.0 10:15.0 11:5.0 13:7.5 14:8.06666666129 15:1.0 
-1.0 2:32.0 4:5.0 6:6.966666667 7:1.0 8:7.09999998225 10:10.0 11:2.0 12:0.833333333 13:7.5 14:7.09999998225 16:1.0 
1.0 1:5.5 2:45.0 4:5.0 6:5.0 7:6.0 8:6.06666665656 9:7.5 11:7.0 12:2.5 13:7.5 14:6.51142856957 15:1.0 16:1.0 
-1.0 1:6.7 2:30.0 4:6.666666668 6:6.333333333 7:3.0 8:5.64999997175 9:5.0 10:15.0 11:4.0 12:5.0 13:5.833333333 14:6.69999999442 15:1.0 16:1.0 
1.0 2:45.0 4:5.0 6:8.0 7:3.0 8:6.95599998609 9:0.833333333 10:15.0 11:4.0 13:10.0 14:6.66999999524 16:1.0 
1.0 2:30.0 4:5.0 6:7.666666667 7:1.0 8:8.47999998304 10:30.0 11:4.0 12:0.833333333 13:10.0 14:8.44999999396 16:1.0 
-1.0 1:7.9 2:30.0 4:2.5 6:7.0 7:5.0 8:5.84285713451 9:10.0 11:5.0 12:2.5 13:10.0 14:6.29999999629 15:1.0 
1.0 2:30.0 4:1.666666668 6:6.333333333 7:3.0 8:6.69999998883 9:8.333333333 10:15.0 11:7.0 13:0.833333333 14:5.9104166642 15:1.0 16:1.0 
1.0 2:30.0 3:1.0 4:1.666666668 6:6.6 7:4.0 8:7.71999998456 9:10.0 10:15.0 11:3.0 12:4.166666668 13:3.333333333 14:7.71249999036 15:1.0 16:1.0 
-1.0 1:5.1 2:45.0 4:7.5 6:5.0 7:4.0 8:4.84999998787 9:5.0 11:6.0 14:5.95555555225 15:1.0 
-1.0 1:4.9 2:30.0 3:1.0 6:7.0 7:4.0 8:6.79999999029 9:10.0 10:15.0 11:8.0 14:6.60370370126 15:1.0 
1.0 1:6.6 2:45.0 3:2.0 4:7.5 5:1.0 6:8.0 7:6.0 8:7.87999998424 9:7.5 11:7.0 12:2.5 13:10.0 14:7.53666666415 15:1.0 16:1.0 
1.0 1:6.5 2:45.0 4:7.5 6:5.0 7:4.0 8:6.39999998933 9:5.0 11:6.0 14:6.22238094942 15:1.0 
-1.0 1:6.6 2:45.0 4:8.333333333 6:6.666666667 7:3.0 8:4.199999979 9:10.0 11:6.0 12:3.333333333 13:4.166666668 14:5.84285713868 15:1.0 
1.0 2:45.0 3:3.0 4:4.166666668 6:7.0 7:3.0 8:6.32499998419 9:5.833333333 11:8.0 12:2.5 13:5.0 14:5.77896551525 15:1.0 16:1.0 
-1.0 1:5.0 2:30.0 6:3.0 7:4.0 8:6.28333332286 9:10.0 10:15.0 11:6.0 14:6.48333333063 15:1.0 
1.0 1:6.5 2:30.0 4:2.5 6:7.0 7:5.0 8:6.72499999159 9:10.0 11:5.0 12:2.5 13:10.0 14:6.99999999708 15:1.0 
-1.0 1:6.0 2:15.0 4:5.0 6:5.0 7:6.0 8:5.32499998669 9:10.0 10:30.0 11:6.0 12:5.0 13:5.0 14:5.98272727001 15:1.0 
-1.0 1:4.4 2:30.0 3:1.0 4:5.0 6:9.0 7:6.0 8:5.24999997375 9:10.0 10:15.0 11:7.0 12:5.0 13:10.0 14:5.77999999749 15:1.0 
1.0 2:30.0 4:5.0 6:7.666666667 7:1.0 10:30.0 11:1.0 12:0.833333333 13:10.0 16:1.0 
1.0 2:45.0 4:5.0 6:8.0 7:3.0 8:7.07499998231 9:0.833333333 10:15.0 11:4.0 13:10.0 14:6.97857142359 16:1.0 
1.0 2:30.0 4:1.666666668 6:6.333333333 7:3.0 8:7.199999982 9:8.333333333 10:15.0 11:5.0 13:0.833333333 14:6.74999999603 15:1.0 16:1.0 
0.177709508427733 1:8.2 2:32.0 4:9.166666668 6:6.333333333 10:8.0 11:1.0 
1.0 2:45.0 3:3.0 4:4.166666668 6:7.0 7:3.0 8:7.06666664311 9:5.833333333 11:4.0 12:2.5 13:5.0 14:6.79999999433 15:1.0 16:1.0 
1.0 1:6.4 2:45.0 4:7.5 6:5.0 7:4.0 8:5.41999998916 9:5.0 11:8.0 14:6.61470588041 15:1.0 
-1.0 2:16.0 4:7.5 6:5.0 10:40.0 11:1.0 12:10.0 16:1.0 
-1.0 1:7.4 2:45.0 4:6.666666668 6:7.333333333 7:3.0 8:8.29999997925 9:6.666666668 11:3.0 12:4.166666668 13:8.333333333 14:7.79999999133 15:1.0 16:1.0 
-1.0 2:45.0 4:8.333333333 6:6.666666667 7:3.0 8:5.36666664878 9:10.0 11:5.0 12:3.333333333 13:4.166666668 14:7.23733332851 15:1.0 
1.0 1:9.0 2:30.0 4:3.333333333 6:7.0 7:3.0 8:8.06666663978 9:10.0 10:15.0 11:2015.0 12:5.833333333 13:8.333333333 14:8.06666663978 15:1.0 16:1.0 
-1.0 2:45.0 3:3.0 4:4.166666668 5:1.0 6:7.0 7:3.0 8:6.07999998784 9:5.833333333 11:4.0 12:2.5 13:5.0 14:6.69166666109 15:1.0 16:1.0 
1.0 1:6.5 2:45.0 4:2.5 5:1.0 6:9.0 7:5.0 8:7.03999998592 9:5.0 10:15.0 11:5.0 12:2.5 13:10.0 14:6.60444444078 15:1.0 16:1.0 
-1.0 2:30.0 4:4.166666668 6:8.666666667 7:3.0 8:7.79999999291 9:0.833333333 10:15.0 11:5.0 12:5.0 13:10.0 14:7.5924999962 15:1.0 16:1.0 
1.0 1:8.4 2:20.0 4:10.0 5:1.0 6:6.0 8:6.94999998842 10:8.0 11:6.0 14:7.02391304042 
-1.0 2:30.0 4:1.666666668 6:7.333333333 7:1.0 10:30.0 11:1.0 12:0.833333333 13:10.0 16:1.0 
1.0 2:30.0 3:1.0 4:1.666666668 6:6.6 7:4.0 8:6.77499998306 9:10.0 10:15.0 11:8.0 12:4.166666668 13:3.333333333 14:6.6632258043 15:1.0 16:1.0 
1.0 1:8.4 2:45.0 4:7.5 6:5.0 7:4.0 8:5.71999998856 9:5.0 11:6.0 14:6.1499999972 15:1.0 
1.0 2:10.0 3:3.0 4:1.666666668 6:4.666666667 9:6.666666668 10:20.0 11:1.0 12:2.5 13:6.666666668 16:1.0 
-1.0 2:10.0 3:3.0 4:1.666666668 6:4.666666667 9:6.666666668 10:20.0 11:1.0 12:2.5 13:6.666666668 16:1.0 
-1.0 1:6.7 2:20.0 4:7.5 6:6.666666667 8:6.84285713308 10:50.0 11:3.0 12:10.0 14:7.2272727207 16:1.0 
1.0 1:5.9 2:30.0 4:4.166666668 6:8.666666667 7:3.0 8:5.699999981 9:0.833333333 10:15.0 11:3.0 12:5.0 13:10.0 14:5.91666665681 15:1.0 16:1.0 
1.0 1:6.25 2:30.0 3:1.0 4:5.0 6:9.0 7:6.0 8:7.02499998244 9:10.0 10:15.0 11:6.0 12:5.0 13:10.0 14:6.60199999736 15:1.0 
-1.0 1:5.95 2:30.0 4:2.5 6:7.0 7:5.0 8:5.56666664811 9:10.0 11:5.0 12:2.5 13:10.0 14:6.18333332921 15:1.0 
-0.10214211324391327 1:5.6 2:35.0 4:5.0 6:6.0 8:8.6999999565 10:7.0 11:8.0 14:7.66956521406 
1.0 1:7.8 2:45.0 4:7.5 6:7.0 7:6.0 8:8.04999998658 9:10.0 11:7.0 12:5.0 13:7.5 14:7.74999999742 15:1.0 
-1.0 2:45.0 4:5.0 6:2.0 7:6.0 8:7.23333332128 9:5.0 11:7.0 12:2.5 13:5.0 14:7.11344827341 16:1.0 
-1.0 2:30.0 4:5.0 6:7.666666667 7:1.0 8:8.06666663978 10:30.0 11:2.0 12:0.833333333 13:10.0 14:8.06666663978 16:1.0 
-1.0 1:10.0 2:15.0 4:5.0 6:5.0 7:6.0 8:6.1999999876 9:10.0 10:30.0 11:6.0 12:5.0 13:5.0 14:6.47727272433 15:1.0 
0.6850788350985524 1:6.9 2:32.0 4:1.666666668 6:8.0 7:1.0 8:5.83333331389 10:10.0 11:3.0 12:0.833333333 13:7.5 14:5.82142856311 16:1.0 
1.0 1:4.8 2:15.0 4:5.0 6:5.0 7:6.0 8:6.04999998487 9:10.0 10:30.0 11:6.0 12:5.0 13:5.0 14:7.04999999718 15:1.0 
-1.0 1:7.5 2:32.0 4:9.166666668 6:6.333333333 8:7.73999998452 10:8.0 11:4.0 14:8.44285713683 
1.0 1:7.2 2:45.0 4:4.0 6:8.0 7:6.0 8:6.89999999233 9:9.0 11:5.0 12:8.0 13:9.0 14:7.12727272403 15:1.0 
-1.0 2:45.0 4:8.333333333 6:6.666666667 7:3.0 9:10.0 11:4.0 12:3.333333333 13:4.166666668 14:7.39999999178 15:1.0 
1.0 1:7.6 2:15.0 4:5.0 6:5.0 7:6.0 8:5.97499998506 9:10.0 10:30.0 11:6.0 12:5.0 13:5.0 14:5.78437499638 15:1.0 
-1.0 2:30.0 3:1.0 4:1.666666668 6:6.6 7:4.0 8:6.66666665556 9:10.0 10:15.0 11:8.0 12:4.166666668 13:3.333333333 14:6.33333333141 15:1.0 16:1.0 
-1.0 2:21.0 4:9.166666668 6:6.333333333 8:7.13999998572 10:5.0 11:2.0 14:7.13999998572 
1.0 2:45.0 4:8.333333333 6:6.666666667 7:3.0 8:5.61428570627 9:10.0 11:5.0 12:3.333333333 13:4.166666668 14:5.80294117306 15:1.0 
-1.0 1:6.4 2:45.0 4:2.0 6:10.0 7:3.0 8:7.799999987 9:7.0 11:6.0 12:3.0 13:7.0 14:7.16956521427 15:1.0 16:1.0 
-1.0 1:7.5 2:45.0 4:7.5 6:5.0 7:4.0 8:6.64999998892 9:5.0 11:6.0 14:6.84814814561 15:1.0 
-1.0 1:7.5 2:20.0 4:7.5 6:6.666666667 10:50.0 11:4029.0 12:10.0 14:7.3624999908 16:1.0 
1.0 1:7.2 2:30.0 4:4.166666668 6:8.666666667 7:3.0 8:6.44999998387 9:0.833333333 10:15.0 11:8.0 12:5.0 13:10.0 14:5.97931034277 15:1.0 16:1.0 
1.0 1:6.2 2:35.0 4:5.0 6:6.0 8:6.17999998764 10:7.0 11:7.0 14:6.34333333098 
-1.0 2:21.0 4:9.166666668 6:6.333333333 8:5.05999998735 10:5.0 11:4.0 14:5.68399999432 
-1.0 1:7.4 2:45.0 3:2.0 4:7.5 6:8.0 7:6.0 8:6.17499999228 9:7.5 11:7.0 12:2.5 13:10.0 14:6.29655172197 15:1.0 16:1.0 
1.0 2:30.0 3:1.0 4:1.666666668 6:6.6 7:4.0 8:5.06666665822 9:10.0 10:15.0 11:3.0 12:4.166666668 13:3.333333333 14:5.58888888268 15:1.0 16:1.0 
1.0 1:6.8 2:30.0 3:1.0 4:5.0 6:9.0 7:6.0 8:7.499999985 9:10.0 10:15.0 11:7.0 12:5.0 13:10.0 14:7.16071428316 15:1.0 
-1.0 1:8.6 2:30.0 4:2.5 6:7.0 7:5.0 8:7.94285713151 9:10.0 11:5.0 12:2.5 13:10.0 14:7.12857142518 15:1.0 
-1.0 1:7.0 2:45.0 3:3.0 4:4.166666668 6:7.0 7:3.0 9:5.833333333 11:10.0 12:2.5 13:5.0 14:6.25833333159 15:1.0 16:1.0 
0.7229876561768469 2:21.0 4:9.166666668 6:6.333333333 10:5.0 11:4029.0 14:7.3624999908 
1.0 2:21.0 4:9.166666668 6:6.333333333 8:7.47999998504 10:5.0 11:4.0 14:7.58461537878 
1.0 1:4.7 2:30.0 3:1.0 6:7.0 7:4.0 8:5.83333332361 9:10.0 10:15.0 11:7.0 14:5.94782608437 15:1.0 
1.0 2:10.0 3:3.0 4:1.666666668 6:4.666666667 9:6.666666668 10:20.0 11:2014.0 12:2.5 13:6.666666668 16:1.0 
1.0 2:32.0 4:5.0 6:6.966666667 7:1.0 8:5.099999983 10:10.0 11:2.0 12:0.833333333 13:7.5 14:5.099999983 16:1.0 
-1.0 1:6.9 2:30.0 4:1.666666668 6:8.333333333 7:1.0 8:7.31249998172 10:30.0 11:2.0 12:0.833333333 13:10.0 14:7.31249998172 15:1.0 16:1.0 
-1.0 1:8.0 2:20.0 4:7.5 6:6.666666667 10:50.0 11:1.0 12:10.0 16:1.0 
-1.0 1:7.8 2:15.0 4:5.0 6:5.0 7:6.0 8:6.75999998648 9:10.0 10:30.0 11:6.0 12:5.0 13:5.0 14:5.94999999702 15:1.0 
-0.8094315784023675 1:6.7 2:30.0 4:4.166666668 6:8.666666667 7:3.0 8:4.199999958 9:0.833333333 10:15.0 11:5.0 12:5.0 13:10.0 14:5.85555554905 15:1.0 16:1.0 
-1.0 2:30.0 3:1.0 4:1.666666668 6:6.6 7:4.0 8:7.43749998141 9:10.0 10:15.0 11:2.0 12:4.166666668 13:3.333333333 14:7.43749998141 15:1.0 16:1.0 
1.0 2:30.0 4:3.333333333 6:7.0 7:3.0 8:6.34999998942 9:10.0 10:15.0 11:3.0 12:5.833333333 13:8.333333333 14:6.66111110371 15:1.0 16:1.0 
1.0 1:7.5 2:45.0 5:1.0 6:6.0 7:6.0 8:7.35999998528 11:5.0 13:7.5 14:7.50588234853 15:1.0 16:1.0 
-1.0 2:30.0 4:1.666666668 6:6.333333333 7:3.0 8:6.69999998325 9:10.0 10:15.0 11:4.0 12:5.0 13:4.166666668 14:6.60454544854 15:1.0 16:1.0 
-1.0 1:5.2 2:35.0 4:5.0 6:6.0 8:7.17999998564 10:7.0 11:2.0 14:7.17999998564 
1.0 2:30.0 4:1.666666668 6:7.333333333 7:1.0 10:30.0 11:1.0 12:0.833333333 13:10.0 16:1.0 
-1.0 1:6.6 2:39.0 4:7.5 6:5.0 7:6.0 8:6.77142856176 9:7.5 10:6.0 11:7.0 12:5.0 13:2.5 14:6.78787878582 15:1.0 16:1.0 
1.0 1:7.7 2:30.0 3:2.0 6:4.0 7:6.0 8:6.41999998716 9:10.0 10:15.0 11:6.0 14:6.78518518267 15:1.0 
-1.0 2:30.0 4:1.666666668 6:6.333333333 7:3.0 8:6.299999979 9:8.333333333 10:15.0 11:7.0 13:0.833333333 14:6.29653845912 15:1.0 16:1.0 
-1.0 1:7.8 2:30.0 4:1.666666668 6:6.333333333 7:3.0 8:6.49999997833 9:8.333333333 10:15.0 11:5.0 13:0.833333333 14:6.58571428101 15:1.0 16:1.0 
-1.0 1:6.45 2:30.0 3:1.0 6:7.0 7:4.0 8:7.15714284692 9:10.0 10:15.0 11:7.0 14:6.64333333112 15:1.0 
-1.0 1:7.65 2:30.0 3:1.0 5:1.0 6:7.0 7:4.0 8:7.29999998175 9:10.0 10:15.0 11:7.0 14:6.96666666409 15:1.0 
-1.0 1:6.7 2:20.0 4:10.0 6:6.0 8:8.63999998272 10:8.0 11:3.0 14:7.90999999209 
0.9556250471855334 1:7.3 2:30.0 4:2.5 6:7.0 7:5.0 8:8.63333331894 9:10.0 11:5.0 12:2.5 13:10.0 14:8.41052631136 15:1.0 
1.0 2:30.0 4:3.333333333 6:7.0 7:3.0 8:8.1999999836 9:10.0 10:15.0 11:3.0 12:5.833333333 13:8.333333333 14:8.04285713137 15:1.0 16:1.0 
-1.0 1:5.4 2:15.0 4:5.0 6:5.0 7:6.0 8:6.77999998644 9:10.0 10:30.0 11:6.0 12:5.0 13:5.0 14:6.6049999967 15:1.0 
1.0 1:9.5 2:32.0 4:1.666666668 6:8.0 7:1.0 8:7.18333332136 10:10.0 11:3.0 12:0.833333333 13:7.5 14:6.84444443684 16:1.0 
1.0 1:7.9 2:15.0 4:5.0 6:5.0 7:6.0 8:7.48333332086 9:10.0 10:30.0 11:6.0 12:5.0 13:5.0 14:7.26217390989 15:1.0 
1.0 1:7.8 2:39.0 4:7.5 6:5.0 7:6.0 8:6.86666665522 9:7.5 10:6.0 11:7.0 12:5.0 13:2.5 14:6.38357142629 15:1.0 16:1.0 
1.0 1:8.3 2:30.0 6:3.0 7:4.0 8:8.61666665231 9:10.0 10:15.0 11:6.0 14:7.83499999674 15:1.0 
-1.0 1:8.1 2:45.0 4:6.666666668 6:7.333333333 7:3.0 8:6.45999998708 9:6.666666668 11:3.0 12:4.166666668 13:8.333333333 14:6.83333332574 15:1.0 16:1.0 
-0.07709913165651239 1:6.7 2:30.0 4:6.666666668 6:6.333333333 7:3.0 8:6.47499998381 9:5.0 10:15.0 11:4032.0 12:5.0 13:5.833333333 14:7.06999999647 15:1.0 16:1.0 
-1.0 1:6.1 2:30.0 4:1.666666668 6:6.333333333 7:3.0 8:6.51666665581 9:8.333333333 10:15.0 11:5.0 13:0.833333333 14:6.32631578614 15:1.0 16:1.0 
-1.0 1:6.0 2:45.0 4:2.5 6:9.0 7:5.0 8:7.47499998131 9:5.0 10:15.0 11:5.0 12:2.5 13:10.0 14:7.10624999556 15:1.0 16:1.0 
1.0 2:32.0 4:5.0 6:6.966666667 7:1.0 8:6.19999997933 10:10.0 11:2.0 12:0.833333333 13:7.5 14:6.19999997933 16:1.0 
-1.0 1:7.1 2:20.0 4:7.5 6:6.666666667 8:7.23333330922 10:50.0 11:3.0 12:10.0 14:7.05714284706 16:1.0 
1.0 2:10.0 3:3.0 4:1.666666668 6:4.666666667 9:6.666666668 10:20.0 11:1.0 12:2.5 13:6.666666668 16:1.0 
-1.0 1:9.0 2:15.0 4:5.0 6:5.0 7:6.0 8:6.46666665948 9:10.0 10:30.0 11:5.0 12:5.0 13:5.0 14:6.39999999467 15:1.0 
0.4229273990956495 1:8.0 2:35.0 4:5.0 6:6.0 8:7.84999998692 10:7.0 11:2016.0 14:7.94444443562 
1.0 2:16.0 4:7.5 5:1.0 6:5.0 10:40.0 11:1.0 12:10.0 16:1.0 
1.0 1:7.9 2:45.0 4:7.5 6:7.0 7:6.0 8:7.88333332019 9:10.0 11:7.0 12:5.0 13:7.5 14:7.86874999754 15:1.0 
-1.0 1:5.5 2:45.0 4:7.5 6:5.0 7:4.0 8:5.97499998506 9:5.0 11:8.0 14:6.6174193527 15:1.0 
1.0 2:30.0 3:1.0 4:1.666666668 6:6.6 7:4.0 8:7.399999963 9:10.0 10:15.0 11:3.0 12:4.166666668 13:3.333333333 14:7.29166665451 15:1.0 16:1.0 
-1.0 1:9.3 2:30.0 4:6.666666668 5:1.0 6:6.333333333 7:3.0 8:6.13333331289 9:5.0 10:15.0 11:3.0 12:5.0 13:5.833333333 14:7.3714285609 15:1.0 16:1.0 
1.0 2:32.0 4:5.0 6:6.966666667 7:1.0 8:7.46666664178 10:10.0 11:2.0 12:0.833333333 13:7.5 14:7.46666664178 16:1.0 
-1.0 2:30.0 4:5.0 6:7.666666667 7:1.0 10:30.0 11:1.0 12:0.833333333 13:10.0 16:1.0 
1.0 1:8.6 2:30.0 4:4.166666668 6:8.666666667 7:3.0 8:6.94999998842 9:0.833333333 10:15.0 11:3.0 12:5.0 13:10.0 14:7.1888888809 15:1.0 16:1.0 
1.0 2:30.0 4:1.666666668 6:6.333333333 7:3.0 8:6.65999998335 9:10.0 10:15.0 11:4.0 12:5.0 13:4.166666668 14:6.09909090355 15:1.0 16:1.0 
-1.0 1:9.8 2:30.0 6:3.0 7:4.0 8:7.99999998667 9:10.0 10:15.0 11:6.0 14:6.74190475869 15:1.0 
-1.0 2:21.0 4:9.166666668 6:6.333333333 8:6.88249998279 10:5.0 11:2.0 14:6.88249998279 
-1.0 2:45.0 4:5.0 5:1.0 6:8.0 7:3.0 8:7.46666665422 9:0.833333333 10:15.0 11:4.0 13:10.0 14:7.66153845564 16:1.0 
-1.0 2:45.0 4:8.333333333 6:6.666666667 7:3.0 8:7.72499998069 9:10.0 11:4.0 12:3.333333333 13:4.166666668 14:7.21538460983 15:1.0 
-1.0 2:45.0 3:3.0 4:4.166666668 6:7.0 7:3.0 8:7.61999998476 9:5.833333333 11:4.0 12:2.5 13:5.0 14:7.66153845564 15:1.0 16:1.0 
1.0 2:45.0 4:5.0 5:1.0 6:8.0 7:3.0 8:6.64999998338 9:0.833333333 10:15.0 11:4.0 13:10.0 14:6.8833333276 16:1.0 
1.0 2:30.0 4:1.666666668 6:6.333333333 7:3.0 8:6.68333332219 9:8.333333333 10:15.0 11:5.0 13:0.833333333 14:6.46111110752 15:1.0 16:1.0 
1.0 1:6.9 2:30.0 4:1.666666668 6:8.333333333 7:1.0 8:8.29999997233 10:30.0 11:2.0 12:0.833333333 13:10.0 14:8.29999997233 15:1.0 16:1.0 
-1.0 1:6.8 2:36.0 4:2.5 6:7.0 7:6.0 8:5.5571428492 9:7.5 10:9.0 11:7.0 12:2.5 13:5.0 14:5.79374999759 15:1.0 16:1.0 
0.5758167638457465 1:9.0 2:30.0 6:3.0 7:4.0 8:8.7285714161 9:10.0 10:15.0 11:6.0 14:8.56896551429 15:1.0 
-0.14583238601180395 2:30.0 4:1.666666668 6:6.333333333 7:3.0 9:10.0 10:15.0 11:6.0 12:5.0 13:4.166666668 14:6.47999999352 15:1.0 16:1.0 
-1.0 2:16.0 4:7.5 5:1.0 6:5.0 10:40.0 11:1.0 12:10.0 16:1.0 
1.0 1:6.3 2:45.0 4:4.0 6:8.0 7:6.0 8:6.47142856218 9:9.0 11:7.0 12:8.0 13:9.0 14:6.61666666446 15:1.0 
1.0 1:7.4 2:45.0 4:10.0 6:8.0 7:6.0 8:6.5624999918 9:10.0 11:7.0 12:5.0 13:8.75 14:6.94999999796 15:1.0 
1.0 2:32.0 4:5.0 6:6.966666667 7:1.0 8:5.93333331356 10:10.0 11:4.0 12:0.833333333 13:7.5 14:6.01111110443 16:1.0 
-1.0 1:5.7 2:45.0 4:10.0 6:8.0 7:6.0 8:6.04999998487 9:10.0 11:7.0 12:5.0 13:8.75 14:5.61999999784 15:1.0 
-1.0 2:45.0 4:5.0 6:8.0 7:3.0 8:6.13999998772 9:0.833333333 10:15.0 11:8.0 13:10.0 14:6.05384615152 16:1.0 
-1.0 2:45.0 4:5.0 6:8.0 7:3.0 8:6.4999999675 9:0.833333333 10:15.0 11:8.0 13:10.0 14:5.52999999787 16:1.0 
1.0 1:5.0 2:32.0 4:1.666666668 6:8.0 7:1.0 8:5.81428570598 10:10.0 11:7.0 12:0.833333333 13:7.5 14:5.97826086697 16:1.0 
1.0 2:45.0 4:5.0 6:2.0 7:6.0 8:6.49999999071 9:5.0 11:7.0 12:2.5 13:5.0 14:6.08620689445 16:1.0 
-1.0 1:5.1 2:45.0 3:3.0 4:4.166666668 6:7.0 7:3.0 8:6.65999998668 9:5.833333333 11:6.0 12:2.5 13:5.0 14:6.39999999754 15:1.0 16:1.0 
1.0 2:30.0 4:5.0 6:7.666666667 7:1.0 10:30.0 11:1.0 12:0.833333333 13:10.0 16:1.0 
1.0 1:6.5 2:20.0 4:10.0 6:6.0 8:7.37499998156 10:8.0 11:4.0 14:7.24545453887 
-1.0 2:32.0 4:5.0 6:6.966666667 7:1.0 8:6.35714284806 10:10.0 11:6.0 12:0.833333333 13:7.5 14:7.11249999704 16:1.0 
-1.0 1:8.8 2:45.0 4:7.5 6:5.0 7:4.0 9:5.0 11:10.0 14:6.08857142683 15:1.0 
1.0 1:9.0 2:45.0 4:7.5 6:5.0 7:4.0 8:6.66666665556 9:5.0 11:6.0 14:6.66879999733 15:1.0 
-1.0 2:30.0 4:3.333333333 5:1.0 6:7.0 7:3.0 8:7.93333332011 9:10.0 10:15.0 11:5.0 12:5.833333333 13:8.333333333 14:7.32705881922 15:1.0 16:1.0 
-1.0 1:7.2 2:39.0 4:7.5 6:5.0 7:6.0 8:7.02499999122 9:7.5 10:6.0 11:7.0 12:5.0 13:2.5 14:6.66551723908 15:1.0 16:1.0 
-1.0 1:9.4 2:30.0 4:1.666666668 6:8.333333333 7:1.0 8:7.06666665489 10:30.0 11:6.0 12:0.833333333 13:10.0 14:6.66999999667 15:1.0 16:1.0 
1.0 1:6.8 2:30.0 3:3.0 4:10.0 6:8.0 7:6.0 8:5.5571428492 9:7.5 10:15.0 11:7.0 12:5.0 13:6.25 14:5.79374999759 15:1.0 16:1.0 
-1.0 2:45.0 4:5.0 6:2.0 7:6.0 8:7.89142856016 9:5.0 11:7.0 12:2.5 13:5.0 14:6.8979310321 16:1.0 
-1.0 1:6.5 2:45.0 4:10.0 6:7.0 7:6.0 8:7.63333332061 9:7.5 11:6.0 12:7.5 13:2.5 14:7.14565217081 15:1.0 
1.0 2:45.0 4:8.333333333 6:6.666666667 7:3.0 8:6.98333332169 9:10.0 11:4.0 12:3.333333333 13:4.166666668 14:6.68461537947 15:1.0 
1.0 1:9.0 2:45.0 4:6.666666668 6:7.333333333 7:3.0 8:7.7999999844 9:6.666666668 11:3.0 12:4.166666668 13:8.333333333 14:8.03749998995 15:1.0 16:1.0 
-1.0 2:45.0 3:3.0 4:4.166666668 6:7.0 7:3.0 8:7.09999998817 9:5.833333333 11:6.0 12:2.5 13:5.0 14:6.31999999684 15:1.0 16:1.0 
1.0 1:7.8 2:30.0 6:3.0 7:4.0 8:7.68333332053 9:10.0 10:15.0 11:6.0 14:7.51481481203 15:1.0 
1.0 1:6.9 2:20.0 4:7.5 6:5.666666667 8:6.34499998414 10:50.0 11:2.0 12:10.0 14:6.34499998414 16:1.0 
-1.0 2:30.0 4:1.666666668 6:6.333333333 7:3.0 8:5.82857142024 9:8.333333333 10:15.0 11:5.0 13:0.833333333 14:6.01176470235 15:1.0 16:1.0 
1.0 2:10.0 3:3.0 4:1.666666668 6:4.666666667 9:6.666666668 10:20.0 11:1.0 12:2.5 13:6.666666668 16:1.0 
1.0 1:8.3 2:30.0 6:8.0 7:6.0 8:7.62857141767 9:10.0 10:15.0 11:6.0 13:7.5 14:7.85384615083 15:1.0 
-1.0 1:6.4 2:45.0 3:3.0 4:4.166666668 6:7.0 7:3.0 8:4.6999999765 9:5.833333333 11:4.0 12:2.5 13:5.0 14:6.16999999383 15:1.0 16:1.0 
-1.0 1:6.8 2:30.0 4:4.166666668 5:1.0 6:8.666666667 7:3.0 8:7.09999997633 9:0.833333333 10:15.0 11:3.0 12:5.0 13:10.0 14:7.07142856133 15:1.0 16:1.0 
1.0 1:4.5 2:35.0 4:5.0 6:6.0 8:6.04999998487 10:7.0 11:7.0 14:5.61999999784 
1.0 2:10.0 3:3.0 4:1.666666668 6:4.666666667 9:6.666666668 10:20.0 11:1.0 12:2.5 13:6.666666668 16:1.0 
1.0 1:9.4 2:45.0 4:8.333333333 6:6.666666667 7:3.0 8:5.44999998637 9:10.0 11:4.0 12:3.333333333 13:4.166666668 14:6.82142856656 15:1.0 
1.0 2:30.0 4:5.0 6:7.666666667 7:1.0 8:7.59999997467 10:30.0 11:2.0 12:0.833333333 13:10.0 14:7.59999997467 16:1.0 
0.7728682194111397 2:30.0 4:5.0 6:7.666666667 7:1.0 8:6.62499998344 10:30.0 11:4.0 12:0.833333333 13:10.0 14:5.93333332674 16:1.0 
-1.0 2:32.0 4:5.0 6:6.966666667 7:1.0 8:8.89999997033 10:10.0 11:2.0 12:0.833333333 13:7.5 14:8.89999997033 16:1.0 
-1.0 1:4.4 2:20.0 4:7.5 6:6.666666667 8:7.57499999053 10:50.0 11:6.0 12:10.0 14:6.88499999656 16:1.0 
1.0 2:45.0 4:5.0 6:2.0 7:6.0 8:5.27499998681 9:5.0 11:7.0 12:2.5 13:5.0 14:6.06399999757 16:1.0 
1.0 1:6.7 2:30.0 4:1.666666668 6:6.333333333 7:3.0 8:7.11249999111 9:10.0 10:15.0 11:5.0 12:5.0 13:4.166666668 14:6.53749999591 15:1.0 16:1.0 
-0.35216088056801986 1:8.8 2:30.0 4:1.666666668 6:6.333333333 7:3.0 8:6.72499998319 9:8.333333333 10:15.0 11:5.0 13:0.833333333 14:6.69999999553 15:1.0 16:1.0 
-1.0 1:6.6 2:20.0 4:7.5 6:5.666666667 8:6.64999998338 10:50.0 11:2.0 12:10.0 14:6.64999998338 16:1.0 
1.0 2:16.0 4:7.5 6:5.0 10:40.0 11:1.0 12:10.0 16:1.0 
1.0 2:30.0 4:5.0 6:7.666666667 7:1.0 8:7.53333330822 10:30.0 11:2.0 12:0.833333333 13:10.0 14:7.53333330822 16:1.0 
1.0 1:5.1 2:20.0 4:10.0 6:6.0 8:7.25999998548 10:8.0 11:7.0 14:6.53666666425 
1.0 2:30.0 4:1.666666668 6:7.333333333 7:1.0 10:30.0 11:1.0 12:0.833333333 13:10.0 16:1.0 
1.0 1:5.4 2:30.0 4:1.666666668 6:6.333333333 7:3.0 8:7.24999998792 9:8.333333333 10:15.0 11:2016.0 13:0.833333333 14:6.96666665893 15:1.0 16:1.0 
1.0 1:6.7 2:45.0 4:2.5 6:9.0 7:5.0 8:6.43333332261 9:5.0 10:15.0 11:5.0 12:2.5 13:10.0 14:6.32777777426 15:1.0 16:1.0 
-0.397293354214493 2:35.0 4:5.0 6:6.0 8:6.16666664611 10:7.0 11:8.0 14:5.42307691891 
-1.0 1:7.45 2:45.0 4:7.5 6:7.0 7:6.0 8:6.32499998419 9:7.5 11:6.0 12:5.0 13:9.25 14:6.73333333013 15:1.0 16:1.0 
-1.0 1:5.2 2:36.0 3:1.0 4:2.5 6:7.0 7:6.0 8:6.17499998456 9:12.5 10:9.0 11:8.0 12:5.0 13:7.5 14:6.26965517025 15:1.0 
1.0 1:4.0 2:45.0 4:2.5 6:7.0 7:6.0 8:6.82222221464 9:10.0 11:6.0 12:2.5 13:5.0 14:7.04999999748 15:1.0 
1.0 1:4.4 2:45.0 3:2.0 4:7.5 6:8.0 7:6.0 8:7.35714284663 9:7.5 11:7.0 12:2.5 13:10.0 14:6.79285714043 15:1.0 16:1.0 
1.0 1:5.9 2:30.0 4:2.5 6:7.0 7:5.0 8:5.64999998588 9:10.0 11:5.0 12:2.5 13:10.0 14:7.06874999558 15:1.0 
1.0 1:7.2 2:30.0 4:6.666666668 6:6.333333333 7:3.0 8:6.7999999864 9:5.0 10:15.0 11:6.0 12:5.0 13:5.833333333 14:6.80399999728 15:1.0 16:1.0 
1.0 1:5.55 2:30.0 4:2.5 5:1.0 6:7.0 7:5.0 8:7.52499998119 9:10.0 11:5.0 12:2.5 13:10.0 14:7.04999999585 15:1.0 
-1.0 1:4.3 2:45.0 4:10.0 6:8.0 7:6.0 8:5.25714284963 9:10.0 11:5.0 12:5.0 13:8.75 14:5.89999999672 15:1.0 
-1.0 2:30.0 4:1.666666668 6:7.333333333 7:1.0 10:30.0 11:1.0 12:0.833333333 13:10.0 16:1.0 
-1.0 1:6.9 2:30.0 6:3.0 7:4.0 8:7.75999998448 9:10.0 10:15.0 11:6.0 14:7.36666666394 15:1.0 
1.0 2:30.0 3:1.0 4:1.666666668 6:6.6 7:4.0 8:7.14444443651 9:10.0 10:15.0 11:6.0 12:4.166666668 13:3.333333333 14:6.93333333077 15:1.0 16:1.0 
0.9613326185139268 1:6.0 2:45.0 6:6.0 7:6.0 8:8.0999999865 11:4.0 13:7.5 14:7.63529411316 15:1.0 16:1.0 
1.0 1:5.5 2:30.0 6:8.0 7:6.0 8:6.86666665522 9:10.0 10:15.0 11:7.0 13:7.5 14:6.28555555323 15:1.0 
1.0 1:8.1 2:30.0 4:1.666666668 6:6.333333333 7:3.0 8:6.84285713308 9:10.0 10:15.0 11:3.0 12:5.0 13:4.166666668 14:7.2272727207 15:1.0 16:1.0 
1.0 2:42.0 6:8.6 7:2.0 8:6.6999999866 10:3.0 11:6.0 12:4.0 13:9.0 14:7.193749997 15:2.0 16:1.0 
-1.0 1:8.1 2:45.0 4:6.666666668 6:7.333333333 7:3.0 8:8.99999991 9:6.666666668 11:4.0 12:4.166666668 13:8.333333333 14:6.4681818123 15:1.0 16:1.0 
1.0 2:32.0 4:5.0 6:6.966666667 7:1.0 8:6.53333331156 10:10.0 11:2.0 12:0.833333333 13:7.5 14:6.53333331156 16:1.0 
-1.0 2:30.0 4:1.666666668 6:7.333333333 7:1.0 8:8.29999997233 10:30.0 11:2.0 12:0.833333333 13:10.0 14:8.29999997233 16:1.0 
1.0 1:6.4 2:30.0 4:1.666666668 6:8.333333333 7:1.0 8:6.56666664478 10:30.0 11:2.0 12:0.833333333 13:10.0 14:6.56666664478 15:1.0 16:1.0 
1.0 2:32.0 4:5.0 6:6.966666667 7:1.0 8:9.23333331794 10:10.0 11:3.0 12:0.833333333 13:7.5 14:8.51818181044 16:1.0 
1.0 1:6.0 2:30.0 4:1.666666668 6:6.333333333 7:3.0 8:7.8999999842 9:8.333333333 10:15.0 11:8.0 13:0.833333333 14:6.95937499783 15:1.0 16:1.0 
1.0 1:5.1 2:45.0 4:7.5 6:5.0 7:4.0 8:3.99999996 9:5.0 11:6.0 14:6.45499999597 15:1.0 
1.0 2:30.0 4:3.333333333 6:7.0 7:3.0 8:5.41199998918 9:10.0 10:15.0 11:4.0 12:5.833333333 13:8.333333333 14:6.29714285264 15:1.0 16:1.0 
1.0 1:7.7 2:45.0 4:2.0 6:10.0 7:3.0 8:7.21666665464 9:7.0 11:6.0 12:3.0 13:7.0 14:6.71958333053 15:1.0 16:1.0 
0.46576480620651217 1:6.4 2:45.0 4:10.0 6:8.0 7:6.0 8:6.99999998833 9:10.0 11:7.0 12:5.0 13:8.75 14:7.24242424023 15:1.0 
-1.0 1:6.9 2:45.0 4:2.5 6:9.0 7:5.0 8:6.11666665647 9:5.0 10:15.0 11:5.0 12:2.5 13:10.0 14:6.27647058454 15:1.0 16:1.0 
1.0 1:9.5 2:30.0 4:4.166666668 6:8.666666667 7:3.0 8:8.73999998252 9:0.833333333 10:15.0 11:5.0 12:5.0 13:10.0 14:8.51818181431 15:1.0 16:1.0 
-1.0 1:6.5 2:45.0 4:5.0 6:6.0 7:6.0 8:5.77999998844 9:10.0 11:10.0 12:7.5 13:5.0 14:6.08787878603 15:1.0 
1.0 1:5.7 2:20.0 3:1.0 4:1.666666668 6:6.333333333 8:5.92499998519 9:10.0 10:23.0 11:6.0 12:2.5 13:8.333333333 14:5.93749999629 16:1.0 
1.0 2:30.0 4:6.666666668 6:6.333333333 7:3.0 8:7.41999998516 9:5.0 10:15.0 11:4.0 12:5.0 13:5.833333333 14:6.61999999338 15:1.0 16:1.0 
-1.0 1:6.8 2:20.0 4:7.5 6:6.666666667 8:7.42857141796 10:50.0 11:5.0 12:10.0 14:7.07272726951 16:1.0 
-0.1353466705885474 1:7.4 2:30.0 4:1.666666668 6:6.333333333 7:3.0 8:5.24999999125 9:10.0 10:15.0 11:5.0 12:5.0 13:4.166666668 14:5.97058823178 15:1.0 16:1.0 
1.0 1:7.75 2:30.0 4:2.5 6:8.0 7:5.0 8:6.53333332244 9:2.5 11:4.0 12:2.5 13:10.0 14:7.08076922532 15:1.0 16:1.0 
1.0 1:6.35 2:30.0 3:1.0 6:7.0 7:4.0 8:6.96666664344 9:10.0 10:15.0 11:6.0 14:6.6416666639 15:1.0 
-1.0 2:45.0 4:5.0 6:8.0 7:3.0 8:4.199999958 9:0.833333333 10:15.0 11:4.0 13:10.0 14:6.38999999361 16:1.0 
1.0 1:9.5 2:45.0 3:3.0 4:4.166666668 6:7.0 7:3.0 8:8.44999998592 9:5.833333333 11:4.0 12:2.5 13:5.0 14:8.21249999487 15:1.0 16:1.0 
-1.0 1:4.2 2:45.0 4:8.333333333 6:6.666666667 7:3.0 8:5.14999998713 9:10.0 11:6.0 12:3.333333333 13:4.166666668 14:5.63846153412 15:1.0 
1.0 2:30.0 4:3.333333333 6:7.0 7:3.0 8:7.47999998504 9:10.0 10:15.0 11:6.0 12:5.833333333 13:8.333333333 14:6.4142857097 15:1.0 16:1.0 
1.0 1:7.3 2:32.0 4:1.666666668 6:8.0 7:1.0 8:8.29999997925 10:10.0 11:3.0 12:0.833333333 13:7.5 14:7.79999999133 16:1.0 
1.0 1:8.0 2:45.0 4:10.0 6:8.0 7:6.0 8:8.0285714171 9:10.0 11:7.0 12:5.0 13:8.75 14:6.86666666438 15:1.0 
-1.0 1:7.3 2:32.0 4:1.666666668 6:8.0 7:1.0 8:6.79999998867 10:10.0 11:5.0 12:0.833333333 13:7.5 14:6.90588234888 16:1.0 
-1.0 1:6.0 2:32.0 4:9.166666668 6:6.333333333 8:6.04999996975 10:8.0 11:4.0 14:6.26249999217 
1.0 1:8.5 2:45.0 4:4.0 6:8.0 7:6.0 8:7.94999998675 9:9.0 11:6.0 12:8.0 13:9.0 14:7.3447826055 15:1.0 
1.0 1:8.3 2:30.0 4:3.333333333 6:7.0 7:3.0 8:6.93999998612 9:10.0 10:15.0 11:5.0 12:5.833333333 13:8.333333333 14:7.57222221802 15:1.0 16:1.0 
-1.0 2:30.0 4:1.666666668 6:6.333333333 7:3.0 8:5.42499998644 9:10.0 10:15.0 11:3.0 12:5.0 13:4.166666668 14:6.6928571333 15:1.0 16:1.0 
1.0 2:45.0 4:8.333333333 6:6.666666667 7:3.0 8:6.17142856261 9:10.0 11:5.0 12:3.333333333 13:4.166666668 14:5.77666666346 15:1.0 
-1.0 2:30.0 4:5.0 6:7.666666667 7:1.0 10:30.0 11:1.0 12:0.833333333 13:10.0 16:1.0 
-1.0 1:9.2 2:45.0 4:7.5 6:5.0 7:4.0 8:5.83333331389 9:5.0 11:6.0 14:6.96428571097 15:1.0 
-1.0 1:6.0 2:45.0 4:8.333333333 6:6.666666667 7:3.0 8:6.56666664478 9:10.0 11:4.0 12:3.333333333 13:4.166666668 14:6.40909090326 15:1.0 
-1.0 1:7.1 2:20.0 3:1.0 4:1.666666668 6:6.333333333 9:10.0 10:23.0 11:1.0 12:2.5 13:8.333333333 16:1.0 
-1.0 2:21.0 4:9.166666668 6:6.333333333 8:7.07499998231 10:5.0 11:4.0 14:6.96363635731 
-1.0 2:16.0 4:7.5 6:5.0 10:40.0 11:1.0 12:10.0 16:1.0 
1.0 1:5.9 2:45.0 3:3.0 4:4.166666668 6:7.0 7:3.0 8:6.84999998858 9:5.833333333 11:4.0 12:2.5 13:5.0 14:6.85714285224 15:1.0 16:1.0 
-1.0 1:7.8 2:45.0 4:10.0 6:8.0 7:6.0 8:7.21666665464 9:10.0 11:7.0 12:5.0 13:8.75 14:7.98678571143 15:1.0 
1.0 1:8.2 2:45.0 4:6.666666668 6:7.333333333 7:3.0 8:5.43333331522 9:6.666666668 11:3.0 12:4.166666668 13:8.333333333 14:6.999999993 15:1.0 16:1.0 
1.0 1:8.8 2:45.0 4:6.666666668 6:7.333333333 7:3.0 8:6.65999998668 9:6.666666668 11:3.0 12:4.166666668 13:8.333333333 14:7.27499999091 15:1.0 16:1.0 
1.0 2:30.0 4:1.666666668 6:6.333333333 7:3.0 8:6.89999999014 9:10.0 10:15.0 11:3.0 12:5.0 13:4.166666668 14:6.999999993 15:1.0 16:1.0 
1.0 2:30.0 3:1.0 4:1.666666668 6:6.6 7:4.0 8:6.61249998347 9:10.0 10:15.0 11:2.0 12:4.166666668 13:3.333333333 14:6.61249998347 15:1.0 16:1.0 
0.6854264655979194 1:8.7 2:20.0 4:7.5 5:1.0 6:5.666666667 8:7.86666664044 10:50.0 11:2.0 12:10.0 14:7.86666664044 16:1.0 
-1.0 1:8.2 2:45.0 4:10.0 6:8.0 7:6.0 8:8.12857141696 9:10.0 11:7.0 12:5.0 13:8.75 14:7.70312499759 15:1.0 
-1.0 1:7.9 2:20.0 4:7.5 6:5.666666667 8:8.13999998372 10:50.0 11:2.0 12:10.0 14:8.13999998372 16:1.0 
1.0 1:4.1 2:30.0 6:3.0 7:4.0 8:4.09999998975 9:10.0 10:15.0 11:8.0 14:5.43703703502 15:1.0 
1.0 1:7.5 2:30.0 3:1.0 4:1.666666668 6:6.6 7:4.0 8:7.07999998584 9:10.0 10:15.0 11:2.0 12:4.166666668 13:3.333333333 14:7.07999998584 15:1.0 16:1.0 
1.0 1:5.8 2:30.0 3:1.0 6:7.0 7:4.0 8:5.42857142082 9:10.0 10:15.0 11:8.0 14:5.8781818164 15:1.0 
-1.0 1:4.8 2:45.0 4:7.5 6:5.0 7:6.0 8:6.74285713322 9:5.0 11:7.0 12:2.5 13:5.0 14:6.7519999973 15:1.0 16:1.0 
-1.0 1:8.0 2:45.0 4:6.666666668 6:7.333333333 7:3.0 8:5.66666664778 9:6.666666668 11:3.0 12:4.166666668 13:8.333333333 14:5.91999998816 15:1.0 16:1.0 
1.0 2:21.0 4:9.166666668 6:6.333333333 8:7.99999997333 10:5.0 11:2.0 14:7.99999997333 
-1.0 1:8.7 2:45.0 4:2.5 6:7.0 7:6.0 8:7.26666665456 9:10.0 11:6.0 12:2.5 13:5.0 14:7.12068965272 15:1.0 
-1.0 1:6.6 2:15.0 4:5.0 6:5.0 7:6.0 8:5.98333332336 9:10.0 10:30.0 11:6.0 12:5.0 13:5.0 14:5.98999999715 15:1.0 
1.0 2:30.0 4:5.0 6:7.666666667 7:1.0 10:30.0 11:1.0 12:0.833333333 13:10.0 16:1.0 
1.0 1:5.7 2:45.0 4:2.5 5:1.0 6:9.0 7:5.0 8:7.37499998156 9:5.0 10:15.0 11:4.0 12:2.5 13:10.0 14:6.93333332756 15:1.0 16:1.0 
-1.0 2:10.0 3:3.0 4:1.666666668 6:4.666666667 8:6.96666664344 9:6.666666668 10:20.0 11:2.0 12:2.5 13:6.666666668 14:6.96666664344 16:1.0 
1.0 1:8.3 2:30.0 4:6.666666668 6:6.333333333 7:3.0 8:7.03333330989 9:5.0 10:15.0 11:4.0 12:5.0 13:5.833333333 14:7.81538460937 15:1.0 16:1.0 
1.0 2:21.0 4:9.166666668 6:6.333333333 8:8.29999997233 10:5.0 11:2.0 14:8.29999997233 
1.0 2:30.0 4:3.333333333 6:7.0 7:3.0 8:6.199999969 9:10.0 10:15.0 11:6.0 12:5.833333333 13:8.333333333 14:6.1833333299 15:1.0 16:1.0 
-1.0 2:30.0 4:5.0 6:7.666666667 7:1.0 8:5.66666664778 10:30.0 11:6.0 12:0.833333333 13:10.0 14:6.58260869279 16:1.0 
-1.0 1:5.3 2:30.0 4:1.666666668 6:8.333333333 7:1.0 8:6.98749998253 10:30.0 11:2.0 12:0.833333333 13:10.0 14:6.98749998253 15:1.0 16:1.0 
0.30613692995100683 1:7.7 2:15.0 4:5.0 6:5.0 7:6.0 8:0.266666665778 9:10.0 10:30.0 11:12.0 12:5.0 13:5.0 14:5.39354838536 15:1.0 
1.0 2:32.0 4:5.0 6:6.966666667 7:1.0 8:7.799999974 10:10.0 11:2.0 12:0.833333333 13:7.5 14:7.799999974 16:1.0 
1.0 1:7.2 2:30.0 3:1.0 4:1.666666668 6:6.6 7:4.0 8:7.87999998424 9:10.0 10:15.0 11:2.0 12:4.166666668 13:3.333333333 14:7.87999998424 15:1.0 16:1.0 
1.0 2:32.0 4:5.0 6:6.966666667 7:1.0 8:6.36666665606 10:10.0 11:2.0 12:0.833333333 13:7.5 14:6.36666665606 16:1.0 
1.0 1:6.2 2:45.0 4:6.666666668 6:7.333333333 7:3.0 8:6.8999999885 9:6.666666668 11:3.0 12:4.166666668 13:8.333333333 14:6.78888888135 15:1.0 16:1.0 
-1.0 2:32.0 4:5.0 6:6.966666667 7:1.0 8:6.63749998341 10:10.0 11:2.0 12:0.833333333 13:7.5 14:6.63749998341 16:1.0 
-1.0 1:10.0 2:30.0 3:1.0 4:1.666666668 6:6.6 7:4.0 8:6.63333331122 9:10.0 10:15.0 11:2.0 12:4.166666668 13:3.333333333 14:6.63333331122 15:1.0 16:1.0 
-1.0 2:16.0 4:7.5 6:5.0 10:40.0 11:1.0 12:10.0 16:1.0 
-1.0 2:30.0 4:3.333333333 6:7.0 7:3.0 8:6.73333331089 9:10.0 10:15.0 11:9.0 12:5.833333333 13:8.333333333 14:5.97419354646 15:1.0 16:1.0 
1.0 2:30.0 4:5.0 6:7.666666667 7:1.0 10:30.0 11:1.0 12:0.833333333 13:10.0 16:1.0 
-0.5759087014836587 2:30.0 4:5.0 5:1.0 6:7.666666667 7:1.0 8:8.06666663978 10:30.0 11:2.0 12:0.833333333 13:10.0 14:8.06666663978 16:1.0 
-1.0 2:30.0 4:4.166666668 6:8.666666667 7:3.0 8:5.91249999261 9:0.833333333 10:15.0 11:5.0 12:5.0 13:10.0 14:6.08823529054 15:1.0 16:1.0 
1.0 2:21.0 4:9.166666668 6:6.333333333 8:6.69999998325 10:5.0 11:3.0 14:6.42857141939 
1.0 2:30.0 4:1.666666668 5:1.0 6:7.333333333 7:1.0 10:30.0 11:1.0 12:0.833333333 13:10.0 16:1.0 
1.0 2:45.0 4:5.0 6:8.0 7:3.0 8:7.34499998164 9:0.833333333 10:15.0 11:4.0 13:10.0 14:6.91181817553 16:1.0 
-1.0 1:9.0 2:36.0 3:1.0 4:2.5 6:7.0 7:6.0 8:7.45714284649 9:12.5 10:9.0 11:8.0 12:5.0 13:7.5 14:7.9096774168 15:1.0 
-1.0 1:7.3 2:30.0 4:2.5 6:8.0 7:5.0 8:6.91666665514 9:2.5 11:4.0 12:2.5 13:10.0 14:6.9533333287 15:1.0 16:1.0 
-1.0 1:7.1 2:30.0 3:3.0 4:10.0 5:1.0 6:8.0 7:6.0 8:6.99999998833 9:7.5 10:15.0 11:7.0 12:5.0 13:6.25 14:6.409374998 15:1.0 16:1.0 
1.0 1:4.7 2:45.0 4:2.0 6:10.0 7:3.0 8:5.43333331522 9:7.0 11:8.0 12:3.0 13:7.0 14:5.51538461326 15:1.0 16:1.0 
1.0 1:7.2 2:30.0 3:1.0 5:1.0 6:7.0 7:4.0 8:7.54999998742 9:10.0 10:15.0 11:6.0 14:7.26479999709 15:1.0 
1.0 2:32.0 4:5.0 6:6.966666667 7:1.0 8:6.71666665547 10:10.0 11:2.0 12:0.833333333 13:7.5 14:6.71666665547 16:1.0 
-1.0 1:5.6 2:30.0 6:3.0 7:4.0 8:7.06666665489 9:10.0 10:15.0 11:6.0 14:7.05652173606 15:1.0 
1.0 2:32.0 4:5.0 6:6.966666667 7:1.0 8:6.26666664578 10:10.0 11:2.0 12:0.833333333 13:7.5 14:6.26666664578 16:1.0 
1.0 2:30.0 4:3.333333333 6:7.0 7:3.0 8:6.93333332178 9:10.0 10:15.0 11:5.0 12:5.833333333 13:8.333333333 14:6.58941176083 15:1.0 16:1.0 
-1.0 1:5.3 2:15.0 4:5.0 6:5.0 7:6.0 8:5.98749999252 9:10.0 10:30.0 11:7.0 12:5.0 13:5.0 14:5.81851851636 15:1.0 
-1.0 1:8.5 2:45.0 4:2.5 5:1.0 6:7.0 7:6.0 8:8.46666663844 9:10.0 11:8.0 12:2.5 13:5.0 14:7.85428571204 15:1.0 
-1.0 1:6.5 2:20.0 4:10.0 6:6.0 8:6.67499998331 10:8.0 11:3.0 14:6.46666665948 
1.0 2:30.0 4:1.666666668 6:7.333333333 7:1.0 10:30.0 11:1.0 12:0.833333333 13:10.0 16:1.0 
1.0 2:21.0 4:9.166666668 6:6.333333333 8:6.74999998312 10:5.0 11:2.0 14:6.74999998312 
1.0 2:10.0 3:3.0 4:1.666666668 6:4.666666667 9:6.666666668 10:20.0 11:1.0 12:2.5 13:6.666666668 16:1.0 
-1.0 1:6.1 2:45.0 4:2.5 6:9.0 7:5.0 8:5.95999998808 9:5.0 10:15.0 11:5.0 12:2.5 13:10.0 14:7.06666666274 15:1.0 16:1.0 
1.0 1:8.1 2:20.0 4:7.5 6:5.666666667 8:7.99999997333 10:50.0 11:2.0 12:10.0 14:7.99999997333 16:1.0 
-1.0 1:6.3 2:45.0 6:6.0 7:6.0 8:6.69999998883 11:5.0 13:7.5 14:7.00555555166 15:1.0 16:1.0 
-1.0 2:30.0 4:3.333333333 6:7.0 7:3.0 8:6.37499998406 9:10.0 10:15.0 11:6.0 12:5.833333333 13:8.333333333 14:6.09499999695 15:1.0 16:1.0 
1.0 1:8.8 2:45.0 4:10.0 6:4.0 7:6.0 8:5.06666664978 9:5.0 11:8.0 12:5.0 13:5.0 14:6.66451612688 15:1.0 
-1.0 1:7.6 2:45.0 4:6.666666668 6:7.333333333 7:3.0 8:6.09999998475 9:6.666666668 11:3.0 12:4.166666668 13:8.333333333 14:6.51249999186 15:1.0 16:1.0 
-1.0 1:6.6 2:45.0 4:2.5 6:9.0 7:5.0 8:7.68888888035 9:5.0 10:15.0 11:5.0 12:2.5 13:10.0 14:7.95833333002 15:1.0 16:1.0 
1.0 1:6.8 2:30.0 4:1.666666668 5:1.0 6:8.333333333 7:1.0 8:7.04999998238 10:30.0 11:2.0 12:0.833333333 13:10.0 14:7.04999998238 15:1.0 16:1.0 
-1.0 1:6.6 2:30.0 6:8.0 7:6.0 8:7.47499998131 9:10.0 10:15.0 11:6.0 13:7.5 14:6.78124999576 15:1.0 
1.0 1:6.9 2:45.0 4:7.5 6:5.0 7:4.0 8:6.799999966 9:5.0 11:6.0 14:6.47380952073 15:1.0 
1.0 1:8.0 2:15.0 4:5.0 6:5.0 7:6.0 8:5.77999998844 9:10.0 10:30.0 11:10.0 12:5.0 13:5.0 14:6.08787878603 15:1.0 
1.0 2:10.0 3:3.0 4:1.666666668 6:4.666666667 9:6.666666668 10:20.0 11:1.0 12:2.5 13:6.666666668 16:1.0 
-1.0 2:45.0 4:5.0 6:2.0 7:6.0 8:5.93999998812 9:5.0 11:7.0 12:2.5 13:5.0 14:6.49333333117 16:1.0 
1.0 1:7.3 2:45.0 6:6.0 7:6.0 8:6.78571427602 11:5.0 13:7.5 14:6.77333332957 15:1.0 16:1.0 
-1.0 1:6.5 2:45.0 4:7.5 6:5.0 7:4.0 8:7.35714284663 9:5.0 11:6.0 14:7.20769230492 15:1.0 
-1.0 1:7.1 2:39.0 4:7.5 6:5.0 7:6.0 8:7.03333332161 9:7.5 10:6.0 11:7.0 12:5.0 13:2.5 14:7.4785714259 15:1.0 16:1.0 
1.0 2:21.0 4:9.166666668 6:6.333333333 8:7.82499998044 10:5.0 11:2.0 14:7.82499998044 
-1.0 1:5.0 2:30.0 3:1.0 4:1.666666668 5:1.0 6:6.6 7:4.0 8:7.39999997533 9:10.0 10:15.0 11:2.0 12:4.166666668 13:3.333333333 14:7.39999997533 15:1.0 16:1.0 
1.0 1:4.0 2:45.0 4:5.0 6:9.0 7:6.0 8:6.08333332319 9:7.5 11:9.0 12:5.0 13:10.0 14:5.96249999814 15:1.0 16:1.0 
-1.0 1:6.4 2:45.0 4:2.5 6:9.0 7:5.0 8:7.5999999905 9:5.0 10:15.0 11:5.0 12:2.5 13:10.0 14:7.34761904412 15:1.0 16:1.0 
0.5605458488378463 2:30.0 4:1.666666668 6:6.333333333 7:3.0 9:8.333333333 10:15.0 11:5.0 13:0.833333333 14:6.57636363039 15:1.0 16:1.0 
0.8160582291264864 1:7.5 2:45.0 4:7.5 6:7.0 7:6.0 8:8.65999998268 9:10.0 11:7.0 12:5.0 13:7.5 14:7.63870967496 15:1.0 
1.0 1:8.7 2:45.0 6:8.0 7:6.0 8:8.14999997962 9:10.0 11:4035.0 13:5.0 14:8.04242423999 15:1.0 
0.5354629959106451 2:45.0 4:7.5 6:7.0 7:6.0 8:9.43333331761 9:10.0 11:7.0 12:5.0 13:7.5 14:8.78260869183 15:1.0 
-1.0 1:7.3 2:30.0 4:1.666666668 6:8.333333333 7:1.0 8:7.44999998758 10:30.0 11:2.0 12:0.833333333 13:10.0 14:7.44999998758 15:1.0 16:1.0 
1.0 1:7.3 2:45.0 4:7.5 6:5.0 7:4.0 8:6.2999999874 9:5.0 11:6.0 14:6.84347825789 15:1.0 
-1.0 1:8.6 2:30.0 4:6.666666668 6:6.333333333 7:3.0 8:6.03333331322 9:5.0 10:15.0 11:8.0 12:5.0 13:5.833333333 14:6.45416666398 15:1.0 16:1.0 
-1.0 1:6.0 2:30.0 4:1.666666668 6:8.333333333 7:1.0 8:5.87499998531 10:30.0 11:2.0 12:0.833333333 13:10.0 14:5.87499998531 15:1.0 16:1.0 
1.0 1:8.3 2:45.0 4:2.5 6:9.0 7:5.0 8:7.15714284692 9:5.0 10:15.0 11:5.0 12:2.5 13:10.0 14:6.75882352544 15:1.0 16:1.0 
1.0 2:45.0 4:8.333333333 6:6.666666667 7:3.0 8:6.42499998394 9:10.0 11:5.0 12:3.333333333 13:4.166666668 14:5.52555555249 15:1.0 
0.5852777712489579 1:9.5 2:30.0 4:4.166666668 6:8.666666667 7:3.0 8:9.03333331828 9:0.833333333 10:15.0 11:4033.0 12:5.0 13:10.0 14:8.56799999657 15:1.0 16:1.0 
1.0 2:30.0 4:3.333333333 5:1.0 6:7.0 7:3.0 8:6.55999998688 9:10.0 10:15.0 11:5.0 12:5.833333333 13:8.333333333 14:6.73529411369 15:1.0 16:1.0 
-1.0 2:30.0 4:1.666666668 6:6.333333333 7:3.0 8:7.58333332069 9:8.333333333 10:15.0 11:5.0 13:0.833333333 14:7.65238094874 15:1.0 16:1.0 
-1.0 2:21.0 4:9.166666668 5:1.0 6:6.333333333 8:8.66666663778 10:5.0 11:2.0 14:8.66666663778 
-1.0 1:6.5 2:32.0 4:1.666666668 6:8.0 7:1.0 8:7.72499998069 10:10.0 11:4.0 12:0.833333333 13:7.5 14:7.21538460983 16:1.0 
1.0 2:30.0 4:5.0 6:7.666666667 7:1.0 10:30.0 11:1.0 12:0.833333333 13:10.0 16:1.0 
0.5505024657900661 1:7.8 2:45.0 4:10.0 6:8.0 7:6.0 8:8.0888888799 9:10.0 11:7.0 12:5.0 13:8.75 14:7.71599999691 15:1.0 
-1.0 1:5.2 2:30.0 4:4.166666668 6:8.666666667 7:3.0 8:6.83333332194 9:0.833333333 10:15.0 11:5.0 12:5.0 13:10.0 14:6.16874999614 15:1.0 16:1.0 
1.0 1:5.7 2:20.0 4:7.5 6:5.666666667 8:6.47999998704 10:50.0 11:2.0 12:10.0 14:6.47999998704 16:1.0 
-1.0 2:16.0 4:7.5 6:5.0 10:40.0 11:1.0 12:10.0 16:1.0 
1.0 1:6.1 2:36.0 4:2.5 6:7.0 7:6.0 8:5.12499998719 9:7.5 10:9.0 11:7.0 12:2.5 13:5.0 14:6.18592592363 15:1.0 16:1.0 
-1.0 1:8.8 2:30.0 6:8.0 7:6.0 8:7.29999998175 9:10.0 10:15.0 11:7.0 13:7.5 14:6.96518518261 15:1.0 
-1.0 1:7.2 2:20.0 3:1.0 4:1.666666668 6:6.333333333 9:10.0 10:23.0 11:1.0 12:2.5 13:8.333333333 16:1.0 
1.0 1:7.1 2:45.0 3:2.0 4:7.5 6:8.0 7:6.0 8:6.43999998712 9:7.5 11:7.0 12:2.5 13:10.0 14:6.4806451592 15:1.0 16:1.0 
1.0 2:16.0 4:7.5 6:5.0 10:40.0 11:1.0 12:10.0 16:1.0 
-1.0 1:9.0 2:30.0 4:1.666666668 6:6.333333333 7:3.0 8:8.13333330622 9:10.0 10:15.0 11:2015.0 12:5.0 13:4.166666668 14:8.13333330622 15:1.0 16:1.0 
1.0 2:16.0 4:7.5 6:5.0 10:40.0 11:1.0 12:10.0 16:1.0 
-1.0 2:45.0 4:5.0 6:2.0 7:6.0 8:8.0999999865 9:5.0 11:7.0 12:2.5 13:5.0 14:8.04166666332 16:1.0 
-1.0 1:8.4 2:45.0 3:2.0 4:7.5 6:8.0 7:6.0 8:6.19999999114 9:7.5 11:7.0 12:2.5 13:10.0 14:6.18799999752 15:1.0 16:1.0 
-1.0 1:6.7 2:39.0 4:7.5 6:5.0 7:6.0 8:5.77499998556 9:7.5 10:6.0 11:8.0 12:5.0 13:2.5 14:6.81176470388 15:1.0 16:1.0 
1.0 1:8.9 2:45.0 4:7.5 6:5.0 7:4.0 8:6.1999999845 9:5.0 11:6.0 14:6.83809523484 15:1.0 
0.8027201920693932 1:7.9 2:36.0 4:2.5 6:7.0 7:6.0 8:6.43333332261 9:7.5 10:9.0 11:7.0 12:2.5 13:5.0 14:6.60333333113 15:1.0 16:1.0 
1.0 1:7.1 2:30.0 4:1.666666668 6:6.333333333 7:3.0 8:5.71999998856 9:10.0 10:15.0 11:6.0 12:5.0 13:4.166666668 14:5.89444444117 15:1.0 16:1.0 
-1.0 1:4.8 2:30.0 3:3.0 4:10.0 6:8.0 7:6.0 8:6.68333332219 9:7.5 10:15.0 11:7.0 12:5.0 13:6.25 14:6.50344827362 15:1.0 16:1.0 
1.0 1:4.2 2:15.0 4:5.0 6:5.0 7:6.0 8:6.39999998933 9:10.0 10:30.0 11:6.0 12:5.0 13:5.0 14:6.22238094942 15:1.0 
1.0 1:8.6 2:45.0 3:3.0 4:4.166666668 6:7.0 7:3.0 8:6.499999935 9:5.833333333 11:4.0 12:2.5 13:5.0 14:7.95999999204 15:1.0 16:1.0 
1.0 1:7.6 2:20.0 4:7.5 6:8.333333333 7:6.0 8:7.99999999 10:50.0 11:3.0 12:10.0 14:7.88181817465 16:1.0 
1.0 1:5.3 2:45.0 4:7.5 6:5.0 7:4.0 8:6.599999967 9:5.0 11:11.0 14:5.81764705711 15:1.0 
-1.0 1:5.8 2:32.0 4:1.666666668 6:8.0 7:1.0 8:7.91666665347 10:10.0 11:4.0 12:0.833333333 13:7.5 14:7.38235293683 16:1.0 
1.0 1:9.1 2:20.0 4:7.5 6:6.666666667 8:7.12857141839 10:50.0 11:3.0 12:10.0 14:7.2999999927 16:1.0 
1.0 1:6.0 2:45.0 4:2.5 6:9.0 7:5.0 8:5.81999998836 9:5.0 10:15.0 11:8.0 12:2.5 13:10.0 14:5.82222222007 15:1.0 16:1.0 
-1.0 1:5.7 2:45.0 4:4.0 6:8.0 7:6.0 8:6.04444443773 9:9.0 11:7.0 12:8.0 13:9.0 14:5.94285714073 15:1.0 
0.6293937452190843 1:6.0 2:45.0 3:3.0 4:4.166666668 6:7.0 7:3.0 8:4.95999999008 9:5.833333333 11:8.0 12:2.5 13:5.0 14:6.22999999792 15:1.0 16:1.0 
1.0 1:7.7 2:30.0 5:1.0 6:8.0 7:6.0 8:7.999999984 9:10.0 10:15.0 11:7.0 13:7.5 14:7.58928571158 15:1.0 
1.0 1:7.7 2:45.0 4:2.5 6:9.0 7:5.0 8:7.75999998448 9:5.0 10:15.0 11:5.0 12:2.5 13:10.0 14:7.36874999539 15:1.0 16:1.0 
-1.0 1:6.2 2:20.0 3:1.0 4:1.666666668 6:6.333333333 9:10.0 10:23.0 11:1.0 12:2.5 13:8.333333333 16:1.0 
-1.0 1:9.0 2:45.0 4:6.666666668 6:7.333333333 7:3.0 8:5.14999998713 9:6.666666668 11:4.0 12:4.166666668 13:8.333333333 14:5.87272726739 15:1.0 16:1.0 
-1.0 1:4.9 2:45.0 4:7.5 6:5.0 7:4.0 8:6.55999998688 9:5.0 11:6.0 14:6.52599999674 15:1.0 
-1.0 1:6.3 2:45.0 4:7.5 6:5.0 7:6.0 8:7.99999998667 9:5.0 11:7.0 12:2.5 13:5.0 14:7.58333333081 15:1.0 16:1.0 
1.0 1:6.3 2:30.0 3:3.0 4:10.0 6:8.0 7:6.0 8:6.26999999373 9:7.5 10:15.0 11:7.0 12:5.0 13:6.25 14:6.11666666463 15:1.0 16:1.0 
-1.0 1:5.2 2:45.0 4:7.5 6:7.0 7:6.0 8:6.58888888157 9:10.0 11:7.0 12:5.0 13:7.5 14:6.06129032063 15:1.0 
0.6235959874269341 1:9.5 2:45.0 4:8.333333333 6:6.666666667 7:3.0 8:8.93999998212 9:10.0 11:3.0 12:3.333333333 13:4.166666668 14:8.0999999919 15:1.0 
-1.0 1:7.2 2:45.0 4:10.0 6:8.0 7:6.0 8:5.45999998908 9:10.0 11:7.0 12:5.0 13:8.75 14:6.37599999745 15:1.0 
-1.0 2:30.0 4:1.666666668 6:6.333333333 7:3.0 8:7.12857141839 9:10.0 10:15.0 11:3.0 12:5.0 13:4.166666668 14:7.2999999927 15:1.0 16:1.0 
-1.0 1:8.1 2:30.0 4:1.666666668 6:8.333333333 7:1.0 8:7.73749998066 10:30.0 11:2.0 12:0.833333333 13:10.0 14:7.73749998066 15:1.0 16:1.0 
1.0 1:6.3 2:39.0 4:7.5 6:5.0 7:6.0 8:6.14285713408 9:7.5 10:6.0 11:7.0 12:5.0 13:2.5 14:6.61999999811 15:1.0 16:1.0 
1.0 2:21.0 4:9.166666668 6:6.333333333 8:6.96666664344 10:5.0 11:2.0 14:6.96666664344 
1.0 1:8.9 2:45.0 4:7.5 6:5.0 7:4.0 8:6.6285714191 9:5.0 11:6.0 14:6.65833333056 15:1.0 
-1.0 1:7.7 2:15.0 4:5.0 6:5.0 7:6.0 8:5.89999998033 9:10.0 10:30.0 11:8.0 12:5.0 13:5.0 14:6.12571428353 15:1.0 
1.0 1:7.1 2:20.0 4:7.5 6:6.666666667 8:7.799999961 10:50.0 11:8.0 12:10.0 14:6.8348571409 16:1.0 
-1.0 1:9.1 2:45.0 3:2.0 4:7.5 6:8.0 7:6.0 8:7.37499998156 9:7.5 11:7.0 12:2.5 13:10.0 14:7.03214285463 15:1.0 16:1.0 
-1.0 2:45.0 4:5.0 6:8.0 7:3.0 8:6.75999998648 9:0.833333333 10:15.0 11:8.0 13:10.0 14:6.94218749783 16:1.0 
1.0 2:30.0 4:4.166666668 6:8.666666667 7:3.0 8:7.98571427431 9:0.833333333 10:15.0 11:5.0 12:5.0 13:10.0 14:7.22249999639 15:1.0 16:1.0 
-0.1800180660772207 2:30.0 3:2.0 4:10.0 6:6.0 7:5.0 8:6.39999997867 9:5.0 11:2015.0 12:4.0 13:2.5 14:6.39999997867 
1.0 1:4.3 2:32.0 4:1.666666668 6:8.0 7:1.0 8:5.63333331456 10:10.0 11:4.0 12:0.833333333 13:7.5 14:6.44999999539 16:1.0 
1.0 2:45.0 3:3.0 4:4.166666668 6:7.0 7:3.0 8:7.76666665372 9:5.833333333 11:4.0 12:2.5 13:5.0 14:7.91764705417 15:1.0 16:1.0 
-1.0 1:6.8 2:30.0 5:1.0 6:8.0 7:6.0 8:7.199999988 9:10.0 10:15.0 11:6.0 13:7.5 14:7.54642856873 15:1.0 
0.4893873925204371 2:30.0 4:5.0 6:7.666666667 7:1.0 8:5.72857142039 10:30.0 11:7.0 12:0.833333333 13:10.0 14:6.36666666431 16:1.0 
-1.0 2:30.0 4:3.333333333 5:1.0 6:7.0 7:3.0 8:7.85999998428 9:10.0 10:15.0 11:5.0 12:5.833333333 13:8.333333333 14:7.05882352526 15:1.0 16:1.0 
-1.0 1:6.8 2:30.0 3:3.0 4:10.0 6:8.0 7:6.0 8:7.06249999117 9:7.5 10:15.0 11:9.0 12:5.0 13:6.25 14:6.62586206668 15:1.0 16:1.0 
1.0 1:8.9 2:20.0 4:7.5 6:7.0 7:6.0 8:8.34999997913 10:50.0 11:2.0 12:10.0 14:8.34999997913 16:1.0 
1.0 1:6.7 2:30.0 6:3.0 7:4.0 8:7.62857141767 9:10.0 10:15.0 11:6.0 14:7.39230768946 15:1.0 
-1.0 2:32.0 4:5.0 6:6.966666667 7:1.0 8:7.39999997533 10:10.0 11:2.0 12:0.833333333 13:7.5 14:7.39999997533 16:1.0 
-1.0 1:7.1 2:30.0 4:1.666666668 6:8.333333333 7:1.0 8:7.71249998072 10:30.0 11:2.0 12:0.833333333 13:10.0 14:7.71249998072 15:1.0 16:1.0 
1.0 2:30.0 4:1.666666668 5:1.0 6:6.333333333 7:3.0 8:6.16999998457 9:10.0 10:15.0 11:4.0 12:5.0 13:4.166666668 14:6.43692307197 15:1.0 16:1.0 
-1.0 1:5.3 2:30.0 6:3.0 7:4.0 8:6.06666665656 9:10.0 10:15.0 11:6.0 14:6.73599999731 15:1.0 
1.0 2:20.0 4:10.0 6:6.0 8:7.62857141767 10:8.0 11:6.0 14:7.85384615083 
1.0 1:7.8 2:30.0 4:1.666666668 6:6.333333333 7:3.0 8:7.11999998576 9:8.333333333 10:15.0 11:5.0 13:0.833333333 14:6.5466666623 15:1.0 16:1.0 
-1.0 2:30.0 4:1.666666668 6:7.333333333 7:1.0 10:30.0 11:1.0 12:0.833333333 13:10.0 16:1.0 
-1.0 2:32.0 4:5.0 6:6.966666667 7:1.0 8:7.63333330789 10:10.0 11:2.0 12:0.833333333 13:7.5 14:7.63333330789 16:1.0 
0.23497102566744604 1:5.5 2:32.0 4:1.666666668 6:8.0 7:1.0 8:6.5999999835 10:10.0 11:9.0 12:0.833333333 13:7.5 14:5.69999999665 16:1.0 
1.0 2:45.0 4:5.0 5:1.0 6:8.0 7:3.0 8:5.98399998803 9:0.833333333 10:15.0 11:4.0 13:10.0 14:6.60923076415 16:1.0 
-1.0 2:45.0 4:5.0 6:8.0 7:3.0 8:6.82499998294 9:0.833333333 10:15.0 11:4.0 13:10.0 14:6.97499999419 16:1.0 
-1.0 2:16.0 4:7.5 6:5.0 10:40.0 11:1.0 12:10.0 16:1.0 
1.0 1:5.0 2:30.0 4:2.5 6:8.0 7:5.0 8:4.99999995 9:2.5 11:4.0 12:2.5 13:10.0 14:5.71666665714 15:1.0 16:1.0 
-1.0 2:30.0 3:1.0 4:1.666666668 6:6.6 7:4.0 8:6.24999998438 9:10.0 10:15.0 11:3.0 12:4.166666668 13:3.333333333 14:6.5624999918 15:1.0 16:1.0 
1.0 1:8.0 2:20.0 3:1.0 4:1.666666668 6:6.333333333 8:5.78571427745 9:10.0 10:23.0 11:8.0 12:2.5 13:8.333333333 14:6.29999999767 16:1.0 
-1.0 2:10.0 3:3.0 4:1.666666668 6:4.666666667 8:7.0428571328 9:6.666666668 10:20.0 11:9.0 12:2.5 13:6.666666668 14:6.47428571244 16:1.0 
-1.0 2:30.0 4:1.666666668 6:7.333333333 7:1.0 10:30.0 11:1.0 12:0.833333333 13:10.0 16:1.0 
1.0 1:6.9 2:20.0 4:10.0 5:1.0 6:6.0 8:7.73333332044 10:8.0 11:6.0 14:7.55478260541 
1.0 2:30.0 4:1.666666668 6:6.333333333 7:3.0 8:6.34999998942 9:8.333333333 10:15.0 11:5.0 13:0.833333333 14:6.41176470211 15:1.0 16:1.0 
-1.0 2:45.0 4:5.0 6:8.0 7:3.0 8:6.41999998716 9:0.833333333 10:15.0 11:6.0 13:10.0 14:6.78518518267 16:1.0 
1.0 1:4.0 2:45.0 4:2.0 6:10.0 7:3.0 8:6.72499998319 9:7.0 11:8.0 12:3.0 13:7.0 14:5.99925925704 15:1.0 16:1.0 
1.0 1:9.2 2:30.0 4:1.666666668 6:8.333333333 7:1.0 8:7.69999997433 10:30.0 11:2.0 12:0.833333333 13:10.0 14:7.69999997433 15:1.0 16:1.0 
-1.0 1:8.5 2:30.0 4:4.166666668 6:8.666666667 7:3.0 8:7.09999997633 9:0.833333333 10:15.0 11:5.0 12:5.0 13:10.0 14:6.54117646674 15:1.0 16:1.0 
1.0 1:5.7 2:30.0 4:2.5 6:8.0 7:5.0 8:6.73333332211 9:2.5 11:5.0 12:2.5 13:10.0 14:6.97894736475 15:1.0 16:1.0 
1.0 1:5.5 2:45.0 4:2.0 6:10.0 7:3.0 8:6.46666665589 9:7.0 11:6.0 12:3.0 13:7.0 14:6.11291666412 15:1.0 16:1.0 
